
\data\
ngram 1=11845
ngram 2=159510

\1-grams:
-4.795097	'BOUT	-0.1498393
-5.032494	'CA	-0.1498393
-4.887422	'CAU	-0.1498393
-2.712048	'CAUSE	-0.895876
-3.465939	'EM	-0.37413
-5.032494	'FRAID	-0.1498393
-3.747079	'KAY	-0.9341621
-4.887422	'LL	-0.1498393
-5.032494	'ROUND	-0.1498393
-3.795282	'S	-0.2380024
-4.270478	'TIL	-0.217075
-5.032494	'TIS	-0.1498393
-4.795097	'VE	-0.1498393
-1.45355	</s>
-99	<s>	-1.610555
-5.178282	<unk>
-5.032494	@'S	-0.1498393
-2.19694	A	-0.8475153
-3.360449	A.	-0.5396953
-4.010869	AB	-0.2056907
-4.795097	ABANDON	-0.2252311
-5.032494	ABANDONED	-0.1498393
-4.887422	ABANDONING	-0.1498393
-5.032494	ABBREVIATED	-0.1498393
-5.032494	ABDUL	-0.1498393
-5.032494	ABERRANT	-0.1498393
-5.032494	ABILITIES	-0.1498393
-4.324452	ABILITY	-0.7712837
-3.71768	ABLE	-1.664709
-4.386098	ABO	-0.2136259
-5.032494	ABOU	-0.1498393
-2.560762	ABOUT	-0.8067722
-3.651866	ABOVE	-0.3835553
-5.032494	ABROAD	-0.1498393
-5.032494	ABRUPT	-0.1498393
-5.032494	ABS	-0.1498393
-5.032494	ABSENCE	-0.1498393
-4.10391	ABSOLUTE	-0.1791179
-3.889833	ABSOLUTELY	-0.2957388
-5.032494	ABSORB	-0.1498393
-4.795097	ABSORBED	-0.1498393
-4.887422	ABSORBER	-0.1498393
-4.544131	ABSORBERS	-0.1766012
-4.887422	ABSORBING	-0.1498393
-4.887422	ABSORP	-0.1498393
-3.71768	ABSORPTION	-0.4764354
-4.179257	ABSTRACT	-0.3027431
-4.795097	ABSTRACTION	-0.1498393
-4.887422	ABSTRACTS	-0.2051211
-4.270478	ABUNDANCE	-0.3244319
-4.887422	ABUNDANCES	-0.1498393
-5.032494	ABUSED	-0.1498393
-5.032494	ABUT	-0.1498393
-5.032494	ABUTTED	-0.1498393
-4.544131	AC	-0.1934874
-5.032494	ACADEMIC	-0.1498393
-4.651732	ACC	-0.1498393
-4.887422	ACCE	-0.1498393
-4.795097	ACCENT	-0.1498393
-5.032494	ACCENTS	-0.1498393
-5.032494	ACCENTU	-0.1498393
-4.795097	ACCENTUATE	-0.1498393
-4.386098	ACCEPT	-0.1766012
-4.457966	ACCEPTABLE	-0.2065464
-5.032494	ACCEPTANCE	-0.1498393
-4.795097	ACCEPTED	-0.1498393
-4.887422	ACCEPTING	-0.1498393
-4.795097	ACCEPTS	-0.1498393
-5.032494	ACCESI	-0.1498393
-3.732131	ACCESS	-0.4545575
-4.795097	ACCESSED	-0.1498393
-3.849511	ACCESSIBLE	-0.3364318
-4.887422	ACCESSING	-0.1498393
-5.032494	ACCESSOIRE	-0.1498393
-5.032494	ACCESSORIES	-0.1498393
-5.032494	ACCESSORS	-0.1498393
-5.032494	ACCESSORY	-0.1498393
-4.887422	ACCIDENT	-0.1498393
-4.270478	ACCIDENTALLY	-0.211563
-5.032494	ACCO	-0.1498393
-4.795097	ACCOMMODATE	-0.1986195
-5.032494	ACCOMMODATED	-0.1498393
-5.032494	ACCOMPANYING	-0.1498393
-4.651732	ACCOMPLISH	-0.1859013
-5.032494	ACCOMPLISHING	-0.1498393
-3.616687	ACCORDING	-1.337925
-4.270478	ACCORDINGLY	-0.2349924
-3.911491	ACCOUNT	-0.513805
-5.032494	ACCOUNTANT	-0.1498393
-4.887422	ACCOUNTANTS	-0.2717859
-4.887422	ACCOUNTED	-0.2684805
-5.032494	ACCOUNTING	-0.1498393
-4.795097	ACCOUNTS	-0.1498393
-5.032494	ACCRUE	-0.1498393
-5.032494	ACCUMULATE	-0.1498393
-4.795097	ACCURACY	-0.1498393
-4.457966	ACCURATE	-0.3521615
-4.887422	ACCURATELY	-0.1934874
-5.032494	ACCUSATION	-0.1498393
-4.457966	ACCUSTOMED	-0.7985713
-4.795097	ACH	-0.1805626
-5.032494	ACHE	-0.1498393
-4.324452	ACHIEVE	-0.2954863
-4.386098	ACHIEVED	-0.2051211
-4.887422	ACHIEVING	-0.1498393
-5.032494	ACKNOWLEDGE	-0.1498393
-4.887422	ACKNOWLEDGED	-0.1498393
-5.032494	ACKNOWLEDGEMENT	-0.1498393
-5.032494	ACNE	-0.1498393
-4.795097	ACOUSTIC	-0.1498393
-5.032494	ACQUAI	-0.1498393
-4.324452	ACQUAINTANCE	-0.211563
-4.651732	ACQUAINTED	-0.4161187
-5.032494	ACQUIRE	-0.1498393
-5.032494	ACQUIRING	-0.1498393
-5.032494	ACQUISI	-0.1498393
-4.179257	ACQUISITION	-0.2811814
-4.544131	ACRONYM	-0.2065464
-4.795097	ACRONYMS	-0.2051211
-3.71768	ACROSS	-0.3657917
-4.139952	ACT	-0.237128
-4.887422	ACTING	-0.2684805
-3.795282	ACTION	-0.3460014
-5.032494	ACTIONED	-0.1498393
-3.983812	ACTIONS	-0.3721547
-4.222477	ACTIVATE	-0.401423
-4.795097	ACTIVATED	-0.2740281
-4.795097	ACTIVATES	-0.1498393
-5.032494	ACTIVATING	-0.1498393
-4.887422	ACTIVATION	-0.1903322
-4.324452	ACTIVE	-0.1498393
-4.887422	ACTIVELY	-0.1498393
-4.651732	ACTIVITIES	-0.1805626
-4.070632	ACTIVITY	-0.2734082
-5.032494	ACTORS	-0.1498393
-4.457966	ACTS	-0.3917529
-4.179257	ACTU	-0.2215719
-5.032494	ACTUA	-0.1498393
-3.76256	ACTUAL	-0.273849
-2.735096	ACTUALLY	-0.5289091
-5.032494	ACU	-0.1498393
-4.386098	AD	-0.1805626
-4.887422	ADA	-0.2684805
-4.795097	ADAM	-0.1498393
-5.032494	ADAMS	-0.1498393
-4.039723	ADAPT	-0.3521616
-4.324452	ADAPTABLE	-0.3521615
-4.544131	ADAPTATION	-0.1859013
-5.032494	ADAPTED	-0.1498393
-5.032494	ADAPTER	-0.1498393
-4.887422	ADAPTING	-0.1498393
-4.651732	ADAPTIVE	-0.1934874
-4.887422	ADAPTOR	-0.2051211
-4.887422	ADAPTORS	-0.1498393
-3.473974	ADD	-0.5212325
-3.651866	ADDED	-0.3014119
-4.887422	ADDENDUM	-0.1498393
-4.887422	ADDICTED	-0.2684805
-4.887422	ADDICTS	-0.1498393
-3.778613	ADDING	-0.2202308
-5.032494	ADDIT	-0.1498393
-4.544131	ADDITION	-0.5455333
-3.958344	ADDITIONAL	-0.2204222
-4.795097	ADDITIONALLY	-0.1498393
-5.032494	ADDITIONS	-0.1498393
-4.070632	ADDRESS	-0.267351
-4.324452	ADDRESSED	-0.1735449
-4.795097	ADDRESSES	-0.2252311
-4.544131	ADDRESSING	-0.1498393
-4.457966	ADDS	-0.1986195
-5.032494	ADEMESOYE	-0.1498393
-5.032494	ADEQUATELY	-0.1498393
-5.032494	ADHERE	-0.1498393
-5.032494	ADHESIVE	-0.1498393
-5.032494	ADJACENCY	-0.1498393
-5.032494	ADJECTIVE	-0.1498393
-4.887422	ADJOURNED	-0.2684805
-3.889833	ADJUST	-0.4383668
-4.795097	ADJUSTABLE	-0.2252311
-4.795097	ADJUSTED	-0.1498393
-4.179257	ADJUSTING	-0.4486956
-4.887422	ADJUSTMENT	-0.1498393
-4.795097	ADJUSTMENTS	-0.2051211
-5.032494	ADM	-0.1498393
-5.032494	ADMIN	-0.2994811
-5.032494	ADMINISTRATE	-0.1498393
-4.651732	ADMINISTRATION	-0.1498393
-5.032494	ADMINISTRATIVE	-0.1498393
-5.032494	ADMINISTRATOR	-0.1498393
-4.222477	ADMIT	-0.2831708
-5.032494	ADMITS	-0.1498393
-4.887422	ADMITTEDLY	-0.1498393
-5.032494	ADMITTING	-0.1498393
-5.032494	ADMONISHMENT	-0.1498393
-5.032494	ADO	-0.1498393
-5.032494	ADOBE	-0.1498393
-4.887422	ADOPT	-0.1498393
-4.887422	ADOPTED	-0.1498393
-5.032494	ADOPTERS	-0.1498393
-5.032494	ADOPTING	-0.1498393
-5.032494	ADS	-0.1498393
-4.651732	ADULT	-0.2051211
-4.651732	ADULTS	-0.1498393
-5.032494	ADV	-0.1498393
-4.795097	ADVA	-0.2252311
-5.032494	ADVANC	-0.1498393
-4.651732	ADVANCE	-0.2732794
-3.507685	ADVANCED	-0.6638771
-5.032494	ADVANCEMENT	-0.2051211
-5.032494	ADVANCEMENTS	-0.1498393
-4.795097	ADVANCES	-0.2252311
-5.032494	ADVANCING	-0.1498393
-3.934286	ADVANTAGE	-0.4483394
-5.032494	ADVANTAGEOUS	-0.1498393
-4.386098	ADVANTAGES	-0.2265579
-5.032494	ADVENT	-0.1498393
-5.032494	ADVENTUROUS	-0.1498393
-4.887422	ADVERT	-0.1498393
-4.887422	ADVERTISE	-0.1498393
-4.887422	ADVERTISED	-0.1498393
-4.651732	ADVERTISEMENT	-0.1498393
-4.544131	ADVERTISING	-0.1805626
-4.887422	ADVERTS	-0.2684805
-4.386098	ADVICE	-0.1498393
-4.651732	ADVISE	-0.1498393
-4.887422	ADVISED	-0.1498393
-5.032494	ADVISING	-0.1498393
-5.032494	ADVISOR	-0.1498393
-5.032494	ADVISORY	-0.1498393
-4.887422	ADVOCATE	-0.1498393
-5.032494	ADVOCATING	-0.1498393
-5.032494	AEROBICS	-0.1498393
-4.179257	AESTHETIC	-0.2272228
-5.032494	AESTHETICALLY	-0.1498393
-4.651732	AESTHETICS	-0.1934874
-4.651732	AF	-0.1498393
-4.010869	AFFECT	-0.3605583
-4.544131	AFFECTED	-0.2272228
-4.795097	AFFECTING	-0.3214501
-5.032494	AFFECTION	-0.1498393
-4.887422	AFFECTIONATE	-0.1498393
-5.032494	AFFECTIONATELY	-0.1498393
-4.795097	AFFECTS	-0.2420176
-4.179257	AFFORD	-0.4028658
-5.032494	AFFORDABLE	-0.1498393
-5.032494	AFFORDED	-0.1498393
-4.457966	AFRAID	-0.3826564
-5.032494	AFRICA	-0.1498393
-4.651732	AFRICAN	-0.1498393
-5.032494	AFRO	-0.2684805
-3.025088	AFTER	-0.5851731
-4.324452	AFTERNOON	-0.4316359
-4.887422	AFTERNOONS	-0.1498393
-5.032494	AFTERWARD	-0.1498393
-3.812617	AFTERWARDS	-0.5637693
-4.544131	AG	-0.1498393
-5.032494	AGA	-0.1498393
-5.032494	AGAI	-0.1498393
-2.857303	AGAIN	-0.6229069
-3.690147	AGAINST	-0.3243898
-3.6281	AGE	-0.5142935
-4.651732	AGED	-0.2051211
-4.887422	AGENCY	-0.1498393
-4.039723	AGENDA	-0.5493307
-4.544131	AGES	-0.2883281
-5.032494	AGEY	-0.1498393
-4.887422	AGGRESSIVE	-0.1498393
-5.032494	AGNES	-0.1498393
-4.10391	AGO	-0.4098106
-5.032494	AGRE	-0.1498393
-3.605567	AGREE	-0.8385239
-4.887422	AGREEABLE	-0.1498393
-4.010869	AGREED	-0.377544
-4.544131	AGREEING	-0.1498393
-3.889833	AGREEMENT	-0.3731228
-4.386098	AGREEMENTS	-0.1945971
-5.032494	AGREES	-0.1498393
-3.664255	AH	-0.8037101
-5.032494	AHA	-0.2684805
-3.983812	AHEAD	-0.9484795
-5.032494	AHMET	-0.1498393
-5.032494	AHOLD	-0.2684805
-5.032494	AHS	-0.1498393
-4.887422	AID	-0.1498393
-5.032494	AIDS	-0.1498393
-3.795282	AIM	-0.5267835
-4.386098	AIMED	-0.3503712
-4.222477	AIMING	-0.5723422
-4.544131	AIMS	-0.1766012
-4.795097	AIN'T	-0.2252311
-4.544131	AIR	-0.1805626
-4.795097	AIRBAG	-0.1498393
-5.032494	AIRPA	-0.1498393
-5.032494	AIRPLANE	-0.1498393
-5.032494	AIRPLANES	-0.1498393
-5.032494	AIRPORT	-0.1498393
-5.032494	AJAX	-0.1498393
-4.887422	AKIN	-0.2684805
-5.032494	AKU	-0.1498393
-3.664255	AL	-0.2867773
-4.795097	ALAN	-0.2252311
-4.324452	ALARM	-0.3502503
-5.032494	ALARM'S	-0.1498393
-5.032494	ALASTAIR	-0.1498393
-4.651732	ALERTS	-0.2445033
-4.887422	ALESSANDRO	-0.1498393
-4.795097	ALESSI	-0.1498393
-4.457966	ALEX	-0.1805625
-4.544131	ALEXANDRE	-0.1498393
-5.032494	ALF	-0.1498393
-5.032494	ALGEBRA	-0.1498393
-5.032494	ALGORI	-0.1498393
-3.934286	ALGORITHM	-0.3448095
-4.651732	ALGORITHMIC	-0.2717859
-4.887422	ALGORITHMICALLY	-0.1498393
-4.887422	ALGORITHMS	-0.1805626
-5.032494	ALIAS	-0.1498393
-5.032494	ALICE	-0.1498393
-4.795097	ALIEN	-0.1498393
-5.032494	ALIENATE	-0.1498393
-5.032494	ALIENATED	-0.1498393
-4.544131	ALIGN	-0.1805626
-4.457966	ALIGNED	-0.1859012
-4.386098	ALIGNMENT	-0.2723154
-4.887422	ALIGNMENTS	-0.1498393
-5.032494	ALIGNS	-0.1498393
-5.032494	ALII	-0.1498393
-4.544131	ALIMA	-0.1934874
-4.544131	ALIMENTATION	-0.1498393
-4.795097	ALIVE	-0.2717859
-4.887422	ALKALINE	-0.1498393
-2.550003	ALL	-0.8006066
-5.032494	ALL'S	-0.1498393
-4.795097	ALLERGIC	-0.368696
-5.032494	ALLEY	-0.1498393
-5.032494	ALLO	-0.1498393
-5.032494	ALLOC	-0.1498393
-5.032494	ALLOCATE	-0.1498393
-4.887422	ALLOCATED	-0.1498393
-5.032494	ALLOCATING	-0.1498393
-5.032494	ALLOCATION	-0.1498393
-3.934286	ALLOW	-0.3262234
-5.032494	ALLOWANCE	-0.1498393
-4.039723	ALLOWED	-0.3962402
-4.887422	ALLOWING	-0.1498393
-4.070632	ALLOWS	-0.3280254
-4.887422	ALLOY	-0.1498393
-4.887422	ALLOYS	-0.1498393
-4.887422	ALLS	-0.1498393
-5.032494	ALM	-0.1498393
-4.544131	ALMO	-0.1498393
-3.450303	ALMOST	-0.3234346
-4.039723	ALONE	-0.3428063
-3.584146	ALONG	-0.5047816
-4.039723	ALPHA	-0.3786838
-5.032494	ALPHABET	-0.1498393
-4.887422	ALPHABETICALLY	-0.1498393
-4.795097	ALPHAS	-0.1498393
-5.032494	ALREA	-0.1498393
-5.032494	ALREAD	-0.1498393
-3.036782	ALREADY	-0.4610055
-4.795097	ALRI	-0.1498393
-5.032494	ALRIGH	-0.1498393
-3.427857	ALRIGHT	-1.043764
-5.032494	ALRIGHTY	-0.3214501
-4.179257	ALS	-0.1498393
-2.716277	ALSO	-0.5776626
-4.887422	ALT	-0.1934874
-5.032494	ALTER	-0.1498393
-5.032494	ALTERATION	-0.1498393
-4.887422	ALTERED	-0.1498393
-4.651732	ALTERING	-0.2051211
-5.032494	ALTERNATE	-0.1498393
-4.386098	ALTERNATIVE	-0.2436731
-4.457966	ALTERNATIVELY	-0.1766012
-4.887422	ALTERNATIVES	-0.2252311
-3.651866	ALTHOUGH	-0.4298643
-4.139952	ALTOGETHER	-0.297428
-4.795097	ALUMINIUM	-0.1498393
-3.27564	ALWAYS	-0.3579872
-4.039723	AM	-0.4201168
-5.032494	AMANDA	-0.1498393
-5.032494	AMAUTO	-0.1498393
-5.032494	AMAYA	-0.1498393
-5.032494	AMAZED	-0.1498393
-4.10391	AMAZING	-0.3793884
-4.795097	AMBER	-0.3214501
-5.032494	AMBIANCE	-0.1498393
-5.032494	AMBIENCE	-0.1498392
-4.795097	AMBIGUITIES	-0.1498393
-4.887422	AMBIGUITY	-0.1498393
-4.651732	AMBIGUOUS	-0.1498393
-4.795097	AMBITIOUS	-0.1498393
-5.032494	AMEN	-0.1498393
-4.651732	AMERICA	-0.1498393
-4.887422	AMERICAN	-0.1498393
-4.070632	AMI	-0.3493964
-5.032494	AMINA	-0.1498393
-4.179257	AMONG	-0.3595682
-4.795097	AMONGST	-0.1498393
-5.032494	AMORPHOUS	-0.1498393
-3.6281	AMOUNT	-0.9257936
-4.887422	AMOUNTS	-0.2684805
-5.032494	AMPHITHEATRE	-0.1498393
-4.887422	AMPLIFIER	-0.2051211
-5.032494	AMPLIFIERS	-0.1498393
-4.795097	AMPLIFIES	-0.1498393
-4.544131	AMPLIFY	-0.1934874
-4.324452	AMPLITUDE	-0.2520332
-5.032494	AMPLITUDES	-0.1934874
-5.032494	AMPS	-0.1498393
-5.032494	AMSTERDAM	-0.1498393
-5.032494	AMUSE	-0.1498393
-4.887422	AMUSEMENT	-0.1498393
-4.887422	AMUSING	-0.1498393
-2.754767	AN	-0.6410804
-5.032494	AN'	-0.1498393
-5.032494	ANA	-0.1498393
-4.887422	ANAL	-0.1498393
-5.032494	ANALOG	-0.1498393
-4.324452	ANALYSE	-0.2006097
-4.544131	ANALYSED	-0.1859012
-4.795097	ANALYSER	-0.2152874
-5.032494	ANALYSER'S	-0.1498393
-4.324452	ANALYSES	-0.1766012
-4.544131	ANALYSING	-0.1859012
-3.573819	ANALYSIS	-0.4336729
-4.887422	ANALYTIC	-0.2684805
-4.887422	ANALYTICAL	-0.1498393
-4.795097	ANALYTICALLY	-0.3214501
-4.887422	ANALYZER	-0.1498393
-5.032494	ANANYS	-0.1498393
-4.795097	ANCIENT	-0.1498393
-1.811049	AND	-1.047581
-4.795097	ANDRE	-0.1498393
-4.222477	ANDREW	-0.2619849
-5.032494	ANDY	-0.1498393
-5.032494	ANECHOIC	-0.1498393
-5.032494	ANGELES	-0.1498393
-5.032494	ANGER	-0.1498393
-4.222477	ANGLE	-0.2157864
-4.544131	ANGLES	-0.2445033
-5.032494	ANGLIA	-0.2252311
-4.457966	ANGRY	-0.1859013
-5.032494	ANGST	-0.1498393
-4.795097	ANGULAR	-0.1498393
-5.032494	ANIM	-0.1498393
-3.664255	ANIMAL	-0.5975164
-3.911491	ANIMALS	-0.3198215
-4.887422	ANIMATION	-0.2252311
-5.032494	ANITA	-0.1498393
-4.457966	ANNA	-0.1934874
-4.651732	ANNOTATE	-0.2051211
-4.222477	ANNOTATED	-0.1691374
-3.983812	ANNOTATION	-0.2237995
-4.544131	ANNOTATIONS	-0.1859012
-5.032494	ANNOTATORS	-0.1498393
-5.032494	ANNOUNCE	-0.1498393
-4.887422	ANNOUNCED	-0.1498393
-5.032494	ANNOUNCEMENT	-0.1498393
-5.032494	ANNOUNCING	-0.1498393
-5.032494	ANNOY	-0.1498393
-4.651732	ANNOYED	-0.2051211
-3.934286	ANNOYING	-0.3583625
-4.887422	ANNOYS	-0.1498393
-5.032494	ANNUALLY	-0.1498393
-4.386098	ANO	-0.2136259
-5.032494	ANON	-0.1498393
-4.887422	ANOTH	-0.1498393
-3.155292	ANOTHER	-0.4002852
-5.032494	ANOTHERS	-0.1498393
-3.934286	ANSWER	-0.3399845
-4.887422	ANSWERED	-0.1498393
-4.457966	ANSWERING	-0.1859012
-4.270478	ANSWERS	-0.2436732
-4.651732	ANT	-0.2051211
-4.795097	ANTEK	-0.3906313
-4.887422	ANTENNA	-0.1498393
-4.887422	ANTENNAS	-0.2684805
-5.032494	ANTHROPOLOGY	-0.1498393
-4.222477	ANTI	-0.5163174
-5.032494	ANTICIPATE	-0.1498393
-5.032494	ANTICIPATING	-0.1498393
-4.887422	ANTLERS	-0.1498393
-5.032494	ANTS	-0.1498393
-4.887422	ANXIETY	-0.1498393
-2.925049	ANY	-0.4580235
-5.032494	ANYB	-0.1498393
-5.032494	ANYBO	-0.1498393
-3.664255	ANYBODY	-0.3179659
-5.032494	ANYBODY'LL	-0.1498393
-4.457966	ANYBODY'S	-0.2371756
-3.544235	ANYMORE	-0.7148724
-3.830672	ANYONE	-0.3702816
-4.795097	ANYONE'S	-0.1498393
-4.887422	ANYTH	-0.1498393
-4.795097	ANYTHI	-0.2252311
-3.0488	ANYTHING	-0.6710049
-4.887422	ANYTHING'S	-0.1498393
-5.032494	ANYTI	-0.1498393
-4.887422	ANYTIME	-0.1498393
-5.032494	ANYTIMES	-0.1498393
-5.032494	ANYW	-0.1498393
-2.934311	ANYWAY	-0.7277125
-4.222477	ANYWAYS	-0.4033141
-3.795282	ANYWHERE	-0.3790878
-4.270478	AP	-0.1498393
-5.032494	APA	-0.1498393
-4.795097	APAR	-0.1498393
-5.032494	APARATA	-0.1498393
-3.690147	APART	-0.5334297
-5.032494	APARTMENT'S	-0.1498393
-5.032494	APE	-0.1498393
-5.032494	APES	-0.1498393
-5.032494	APEX	-0.1498393
-5.032494	APHORISM	-0.1498393
-4.887422	APOLOGIES	-0.2252311
-5.032494	APOLOGISE	-0.1498393
-4.887422	APOSTROPHE	-0.1498393
-5.032494	APP	-0.1498393
-5.032494	APPAR	-0.1498393
-5.032494	APPARA	-0.1498393
-4.544131	APPARATUS	-0.2112948
-5.032494	APPARATUSES	-0.1498393
-4.887422	APPARENT	-0.2684805
-3.747079	APPARENTLY	-0.2898536
-4.010869	APPEAL	-0.4623933
-4.179257	APPEALING	-0.3179827
-4.544131	APPEALS	-0.3236845
-3.812617	APPEAR	-0.3515303
-5.032494	APPEARAN	-0.1498393
-4.324452	APPEARANCE	-0.2916538
-5.032494	APPEARANCES	-0.1498393
-4.544131	APPEARED	-0.1934874
-4.651732	APPEARING	-0.1498393
-4.270478	APPEARS	-0.3675914
-5.032494	APPENDIX	-0.1498393
-3.76256	APPLE	-0.3457027
-4.795097	APPLE'S	-0.1498393
-5.032494	APPLE'VE	-0.1498393
-4.457966	APPLES	-0.2272228
-5.032494	APPLET	-0.1498393
-4.544131	APPLETON	-0.6894269
-4.795097	APPLIANCE	-0.2051211
-4.887422	APPLIANCES	-0.1498393
-4.457966	APPLICABLE	-0.1805626
-3.869204	APPLICATION	-0.2780557
-4.457966	APPLICATIONS	-0.1805626
-4.222477	APPLIED	-0.2051211
-4.795097	APPLIES	-0.2051211
-3.812617	APPLY	-0.3055631
-4.386098	APPLYING	-0.217075
-5.032494	APPR	-0.1498393
-4.457966	APPRECIATE	-0.2371756
-5.032494	APPRECIATED	-0.1498393
-5.032494	APPREHENSIVE	-0.1498393
-5.032494	APPRENTICE	-0.1498393
-3.747079	APPROACH	-0.3237665
-4.887422	APPROACHABLE	-0.1498393
-5.032494	APPROACHED	-0.1498393
-4.10391	APPROACHES	-0.2950675
-4.887422	APPROACHING	-0.2051211
-4.179257	APPROPRIATE	-0.2741779
-4.795097	APPROPRIATELY	-0.1498393
-5.032494	APPROVE	-0.1498393
-5.032494	APPROVED	-0.1498393
-5.032494	APPROX	-0.1498393
-4.651732	APPROXIMATE	-0.2883281
-4.887422	APPROXIMATED	-0.2684805
-4.457966	APPROXIMATELY	-0.2152874
-4.887422	APPROXIMATING	-0.1498393
-4.651732	APPROXIMATION	-0.2051211
-5.032494	APPROXIMATIVELY	-0.1498393
-4.324452	APRIL	-0.2432587
-4.010869	AR	-0.2506365
-5.032494	ARABIAN	-0.1498393
-4.795097	ARBITRARILY	-0.1498393
-4.270478	ARBITRARY	-0.2160361
-4.795097	ARC	-0.1498393
-5.032494	ARCH	-0.1498393
-5.032494	ARCHING	-0.1498393
-5.032494	ARCHITECTURAL	-0.1498393
-4.651732	ARCHITECTURE	-0.2051211
-4.544131	ARCHIVE	-0.1934874
-5.032494	ARCHIVES	-0.1498393
-5.032494	ARCS	-0.1498393
-2.466745	ARE	-0.7558254
-3.6281	AREA	-0.3724192
-4.10391	AREAS	-0.263625
-3.366738	AREN'T	-0.3971825
-5.032494	ARG	-0.1498393
-5.032494	ARGH	-0.3214501
-5.032494	ARGU	-0.1498393
-4.222477	ARGUE	-0.4229415
-5.032494	ARGUED	-0.1498393
-4.651732	ARGUING	-0.1498393
-4.10391	ARGUMENT	-0.3143055
-5.032494	ARGUMENTATION	-0.1498393
-4.795097	ARGUMENTATIVE	-0.1498393
-4.544131	ARGUMENTS	-0.2445033
-5.032494	ARISE	-0.1498393
-5.032494	ARISED	-0.1498393
-5.032494	ARISES	-0.1498393
-5.032494	ARITHMETIC	-0.1498393
-5.032494	ARIZONA	-0.1498393
-4.887422	ARLO	-0.1498393
-4.795097	ARM	-0.1498393
-4.887422	ARMCHAIR	-0.2051211
-5.032494	ARMCHAIRS	-0.1498393
-4.887422	ARO	-0.2684805
-5.032494	AROU	-0.1498393
-3.010899	AROUND	-0.6236854
-5.032494	ARRAN	-0.1498393
-4.270478	ARRANGE	-0.2974279
-5.032494	ARRANGED	-0.1498393
-5.032494	ARRANGEMENT	-0.1498393
-5.032494	ARRANGEMENTS	-0.1498393
-5.032494	ARRANGING	-0.1498393
-4.179257	ARRAY	-0.3667881
-4.795097	ARRAYS	-0.1859012
-5.032494	ARREARS	-0.1498393
-4.651732	ARRIVE	-0.1498393
-4.544131	ARRIVED	-0.1498393
-5.032494	ARRIVES	-0.1498393
-4.651732	ARRIVING	-0.1498393
-4.039723	ARROW	-0.2981712
-5.032494	ARROW'S	-0.1498393
-4.386098	ARROWS	-0.3667881
-5.032494	ARSE	-0.1498393
-5.032494	ARSES	-0.1498393
-4.651732	ART	-0.3244319
-5.032494	ARTEM	-0.1498393
-5.032494	ARTHRITIS	-0.1498393
-4.795097	ARTICLE	-0.1498393
-4.457966	ARTICLES	-0.3236845
-4.795097	ARTICULATED	-0.1498393
-4.457966	ARTICULATION	-0.4997758
-5.032494	ARTICULATORS	-0.1498393
-5.032494	ARTIFACT	-0.1498393
-5.032494	ARTIFACTS	-0.1498393
-4.887422	ARTIFICIAL	-0.2252311
-4.544131	ARTIST	-0.2152874
-4.10391	ARTISTIC	-0.25557
-5.032494	ARTISTRY	-0.1498393
-4.887422	ARTISTS	-0.1498393
-2.305955	AS	-0.9295327
-4.386098	ASCII	-0.2797499
-5.032494	ASHER	-0.1498393
-5.032494	ASIA	-0.1498393
-5.032494	ASIAN	-0.1498393
-4.651732	ASIDE	-0.1498393
-3.563732	ASK	-0.4126017
-3.830672	ASKED	-0.4120586
-4.039723	ASKING	-0.2815896
-4.887422	ASKS	-0.1498393
-5.032494	ASLEEPS	-0.1498393
-4.887422	ASPE	-0.1498393
-3.573819	ASPECT	-0.4639406
-3.795282	ASPECTS	-0.4490311
-4.795097	ASS	-0.1498393
-5.032494	ASSE	-0.1498393
-4.887422	ASSEMBLE	-0.1498393
-4.887422	ASSEMBLED	-0.1498393
-5.032494	ASSEMBLER	-0.1498393
-5.032494	ASSEMBLIES	-0.1498393
-4.386098	ASSEMBLY	-0.1998673
-5.032494	ASSERTIVE	-0.1498393
-4.887422	ASSESS	-0.1498393
-4.887422	ASSESSMENT	-0.2684805
-4.324452	ASSIGN	-0.2207553
-5.032494	ASSIGNATION	-0.1498393
-4.651732	ASSIGNED	-0.2051211
-5.032494	ASSIGNING	-0.1498393
-4.457966	ASSIGNMENT	-0.2136259
-4.544131	ASSIGNMENTS	-0.1934874
-5.032494	ASSIGNS	-0.1498393
-4.887422	ASSIST	-0.1498393
-4.544131	ASSISTANT	-0.3092119
-4.651732	ASSISTANTS	-0.2051211
-4.324452	ASSOCIATE	-0.1945971
-4.070632	ASSOCIATED	-0.3228544
-4.887422	ASSOCIATING	-0.1498393
-4.887422	ASSOCIATION	-0.1498393
-5.032494	ASSORTED	-0.1498393
-4.887422	ASSU	-0.1498393
-4.039723	ASSUME	-0.364204
-4.544131	ASSUMED	-0.2420176
-4.651732	ASSUMES	-0.1934874
-4.139952	ASSUMING	-0.3149714
-4.544131	ASSUMPTION	-0.2152875
-4.795097	ASSUMPTIONS	-0.1498393
-5.032494	ASSURED	-0.1498393
-4.795097	ASTERISK	-0.1498393
-5.032494	ASTRAY	-0.1498393
-5.032494	ASTRO	-0.1498393
-4.795097	ASYMMET	-0.1498393
-5.032494	ASYMMETRY	-0.1498393
-2.383536	AT	-1.001624
-4.795097	ATE	-0.1498393
-5.032494	ATHE	-0.1498393
-5.032494	ATHINEOS	-0.1498393
-4.887422	ATLANTIC	-0.1498393
-4.795097	ATLAS	-0.2051211
-5.032494	ATLAS'S	-0.1498392
-4.795097	ATMOSPHERE	-0.1498393
-4.324452	ATTACH	-0.3153555
-4.10391	ATTACHED	-0.5612246
-4.795097	ATTACHES	-0.2252311
-5.032494	ATTACHING	-0.1498393
-5.032494	ATTACHMENT	-0.1498393
-4.887422	ATTACK	-0.1498393
-4.887422	ATTAIN	-0.1498393
-4.651732	ATTEMPT	-0.4463889
-4.887422	ATTEMPTING	-0.2684805
-4.887422	ATTEMPTS	-0.2684805
-4.887422	ATTEND	-0.1498393
-4.651732	ATTENDED	-0.1498393
-5.032494	ATTENDING	-0.1498393
-4.10391	ATTENTION	-0.3592302
-4.887422	ATTITUDE	-0.1498393
-4.457966	ATTRACT	-0.1691374
-5.032494	ATTRACTABLE	-0.1498393
-4.887422	ATTRACTED	-0.3214501
-5.032494	ATTRACTING	-0.1498393
-5.032494	ATTRACTION	-0.1498393
-3.958344	ATTRACTIVE	-0.3803748
-4.887422	ATTRACTS	-0.1498393
-4.544131	ATTRIBUTE	-0.1766012
-5.032494	ATTRIBUTED	-0.1498393
-4.386098	ATTRIBUTES	-0.1766012
-4.651732	AU	-0.1498393
-5.032494	AUBERGINES	-0.1498393
-4.887422	AUDI	-0.1498393
-4.795097	AUDIBLE	-0.1498393
-3.958344	AUDIENCE	-0.3693578
-4.544131	AUDIENCES	-0.1934874
-3.544235	AUDIO	-0.4650635
-5.032494	AUDIOS	-0.1498393
-5.032494	AUGMENT	-0.1498393
-5.032494	AUGMENTED	-0.1498393
-5.032494	AUR	-0.1498393
-4.270478	AURORA	-0.2060708
-4.887422	AUSTRALIA	-0.2051211
-5.032494	AUTH	-0.1498393
-4.795097	AUTHOR	-0.1498393
-4.887422	AUTHORITY	-0.1498393
-5.032494	AUTHORS	-0.1498393
-4.887422	AUTISM	-0.2252311
-4.544131	AUTO	-0.2706813
-5.032494	AUTOMAC	-0.1498393
-4.887422	AUTOMATED	-0.1498393
-3.889833	AUTOMATIC	-0.3420723
-4.887422	AUTOMATICAL	-0.2684805
-3.573819	AUTOMATICALLY	-0.3186975
-4.887422	AUTONOMY	-0.3214501
-4.795097	AUTOSEEK	-0.2252311
-4.651732	AUTUMN	-0.2051211
-5.032494	AUXILIARY	-0.1498393
-4.795097	AV	-0.2051211
-5.032494	AVAI	-0.1498393
-5.032494	AVAIL	-0.1498393
-5.032494	AVAILA	-0.1498393
-4.795097	AVAILABILITY	-0.2051211
-3.465939	AVAILABLE	-0.5341139
-5.032494	AVAILABLES	-0.1498393
-4.887422	AVENUE	-0.1498393
-3.830672	AVERAGE	-0.3227946
-5.032494	AVERAGED	-0.1498393
-5.032494	AVERAGES	-0.1498393
-4.887422	AVERAGING	-0.1498393
-5.032494	AVIATION	-0.1498393
-5.032494	AVOCADO	-0.1498393
-4.070632	AVOID	-0.1766012
-5.032494	AVOIDABLE	-0.1498393
-4.887422	AVOIDING	-0.1498393
-5.032494	AVRIL	-0.1498393
-4.795097	AW	-0.1498393
-5.032494	AWAKE	-0.1498393
-4.324452	AWARE	-0.5101769
-3.255566	AWAY	-0.6442761
-4.270478	AWESOME	-0.5743094
-5.032494	AWESOMEST	-0.1498393
-4.544131	AWFUL	-0.4975414
-4.887422	AWKWARD	-0.2051211
-4.887422	AXES	-0.1498393
-5.032494	AXIALLY	-0.1498393
-5.032494	AXIS	-0.1498393
-4.270478	AYE	-0.4711588
-5.032494	AZERTY	-0.1498393
-3.179302	B	-0.4689158
-3.563732	B.	-0.4293762
-4.270478	BA	-0.2493516
-4.544131	BABA	-0.2445033
-5.032494	BABA'S	-0.1498393
-5.032494	BABE	-0.1498393
-5.032494	BABIES	-0.1498393
-4.386098	BABY	-0.2883282
-5.032494	BAC	-0.1498393
-2.989119	BACK	-0.8100553
-4.887422	BACKED	-0.1498393
-3.911491	BACKGROUND	-0.3228124
-5.032494	BACKING	-0.1498393
-4.651732	BACKLIGHT	-0.2136259
-4.651732	BACKLIGHTING	-0.2051211
-4.795097	BACKS	-0.1498393
-4.887422	BACKSIDE	-0.2717859
-5.032494	BACKTRACK	-0.1498393
-4.039723	BACKUP	-0.2961554
-4.651732	BACKUPS	-0.1498393
-5.032494	BACKWARD	-0.1498393
-4.270478	BACKWARDS	-0.211563
-5.032494	BACO	-0.1498393
-3.616687	BAD	-0.497489
-5.032494	BADG	-0.1498393
-4.386098	BADGE	-0.1735449
-4.651732	BADGER	-0.5432989
-5.032494	BADGER'S	-0.1498393
-5.032494	BADGERS	-0.1498393
-5.032494	BADGING	-0.1498393
-4.544131	BADLY	-0.1498393
-4.324452	BAG	-0.272781
-4.795097	BAGS	-0.1498393
-5.032494	BAHAMAS	-0.1498393
-5.032494	BAKE	-0.1498393
-4.887422	BAL	-0.2051211
-4.222477	BALANCE	-0.2897849
-5.032494	BALANCED	-0.1498393
-5.032494	BALANCING	-0.1498393
-3.911491	BALL	-0.3514966
-5.032494	BALLARD	-0.1498393
-5.032494	BALLOON	-0.1498393
-4.887422	BALLPARK	-0.1498393
-4.457966	BALLS	-0.2060708
-4.887422	BALS	-0.2252311
-4.651732	BANA	-0.1859012
-3.473974	BANANA	-0.5948782
-4.795097	BANANA'S	-0.1498393
-5.032494	BANANARAMA	-0.1498393
-4.651732	BANANAS	-0.2941696
-3.76256	BAND	-0.43673
-5.032494	BANDO	-0.1498393
-3.983812	BANDS	-0.267351
-5.032494	BANDWIDTH	-0.1498393
-5.032494	BANG	-0.1498393
-5.032494	BANGLADESH	-0.1498393
-4.324452	BANK	-0.2424683
-5.032494	BANKING	-0.1498393
-5.032494	BANNED	-0.1498393
-5.032494	BANNER	-0.1498393
-3.889833	BAR	-0.2904688
-4.457966	BARBARA	-0.1498393
-4.887422	BARE	-0.1498393
-4.651732	BARELY	-0.1498393
-4.887422	BARGAIN	-0.2684805
-5.032494	BARGED	-0.1498393
-4.887422	BARKS	-0.2252311
-5.032494	BARNEY	-0.1498393
-5.032494	BAROQUE	-0.1498393
-5.032494	BARRIER	-0.1498393
-5.032494	BARRIERS	-0.1498393
-4.795097	BARRY	-0.2684805
-4.795097	BARS	-0.1498393
-5.032494	BART	-0.1498393
-4.270478	BAS	-0.1934874
-3.63982	BASE	-0.4653547
-3.200377	BASED	-0.7549474
-4.324452	BASELINE	-0.1498393
-4.795097	BASEMENT	-0.2445033
-4.795097	BASH	-0.2252311
-5.032494	BASHED	-0.1498393
-4.457966	BASI	-0.2252311
-3.336165	BASIC	-0.4650553
-2.951012	BASICALLY	-0.5605806
-4.795097	BASICS	-0.2804668
-4.795097	BASING	-0.1498393
-4.039723	BASIS	-0.4392141
-5.032494	BASKET	-0.1498393
-5.032494	BASKETBALL	-0.1498393
-4.386098	BASS	-0.3340856
-4.887422	BASTARD	-0.2252311
-4.887422	BASTIEN	-0.1498393
-4.544131	BAT	-0.1859013
-5.032494	BATCH	-0.1498393
-5.032494	BATEER	-0.1498393
-4.795097	BATH	-0.2252311
-5.032494	BATHGATE	-0.1498393
-5.032494	BATHROOM	-0.1498393
-5.032494	BATTER	-0.1498393
-3.291328	BATTERIES	-0.5200653
-3.291328	BATTERY	-0.5391759
-4.887422	BATTERY'S	-0.1498393
-4.795097	BAUFIX	-0.2051211
-4.795097	BAY	-0.1498393
-5.032494	BAYES	-0.1498393
-2.9093	BE	-0.7774219
-5.032494	BEA	-0.1498393
-4.887422	BEACH	-0.1498393
-5.032494	BEACHES	-0.1498393
-5.032494	BEACON	-0.1498393
-4.795097	BEAGLE	-0.3214501
-5.032494	BEAGLES	-0.1498393
-4.651732	BEAM	-0.1498393
-4.887422	BEAMBOT	-0.1498393
-4.795097	BEAMER	-0.2152874
-4.887422	BEAMS	-0.1498393
-5.032494	BEAN	-0.1498393
-5.032494	BEANS	-0.1498393
-4.139952	BEAR	-0.3620845
-4.887422	BEARD	-0.1498393
-4.887422	BEARING	-0.1498393
-5.032494	BEARINGS	-0.1498393
-4.795097	BEAST	-0.1498393
-4.386098	BEAT	-0.1735449
-5.032494	BEATA	-0.1498393
-5.032494	BEATLES	-0.1498393
-3.869204	BEAUTIFUL	-0.3330099
-5.032494	BEAUTIFULLY	-0.1498393
-4.544131	BEAUTY	-0.1859013
-4.887422	BEAVER	-0.2684805
-4.544131	BEC	-0.3034564
-5.032494	BECA	-0.1498393
-4.386098	BECAME	-0.1498393
-5.032494	BECASUE	-0.1498393
-4.386098	BECAU	-0.2006097
-2.419916	BECAUSE	-1.037236
-3.812617	BECOME	-0.3162984
-4.070632	BECOMES	-0.3213113
-4.270478	BECOMING	-0.2556347
-5.032494	BED	-0.1498393
-5.032494	BEDROOM	-0.1498393
-4.887422	BEE	-0.4478772
-5.032494	BEEBIES	-0.1498393
-4.887422	BEEFY	-0.1498393
-3.442692	BEEN	-0.3710965
-3.732131	BEEP	-0.6239995
-5.032494	BEEPED	-0.1498393
-4.887422	BEEPER	-0.1498393
-4.386098	BEEPING	-0.2931726
-4.179257	BEEPS	-0.2569857
-4.386098	BEER	-0.2065464
-5.032494	BEES	-0.1498393
-4.651732	BEF	-0.1498393
-2.955904	BEFORE	-0.7083433
-4.651732	BEFOREHAND	-0.1498393
-4.887422	BEG	-0.1498393
-4.795097	BEGAN	-0.2051211
-4.179257	BEGIN	-0.4713583
-5.032494	BEGINNI	-0.1498393
-4.222477	BEGINNING	-0.4646972
-4.795097	BEGINS	-0.2252311
-5.032494	BEGUN	-0.1498393
-4.795097	BEHAVE	-0.1498393
-4.179257	BEHAVIOUR	-0.4816704
-3.664255	BEHIND	-0.383171
-5.032494	BEHOLDEN	-0.1498393
-3.179302	BEING	-0.3394548
-5.032494	BEINGS	-0.1498393
-5.032494	BELGIUM	-0.1498393
-4.039723	BELIEVE	-0.4196474
-5.032494	BELIEVES	-0.1498393
-5.032494	BELIEVING	-0.1498393
-5.032494	BELL	-0.1498393
-5.032494	BELL'S	-0.1498393
-4.386098	BELLS	-0.6239684
-5.032494	BELLY	-0.1498393
-4.651732	BELONG	-0.3686959
-4.795097	BELONGS	-0.1498393
-3.690147	BELOW	-0.4313788
-4.887422	BELT	-0.2684805
-4.544131	BEN	-0.1498393
-5.032494	BENCH	-0.1498393
-5.032494	BENCHMARK	-0.1498393
-5.032494	BENCHMARKING	-0.1498393
-5.032494	BEND	-0.1498393
-4.795097	BENDABLE	-0.2051211
-4.795097	BENEATH	-0.1498393
-4.887422	BENEFICIAL	-0.1498393
-4.324452	BENEFIT	-0.2596394
-4.887422	BENEFITS	-0.1498393
-5.032494	BENJO	-0.2252311
-4.887422	BENT	-0.1498393
-4.887422	BERKELEY	-0.1498393
-5.032494	BES	-0.1498393
-4.887422	BESIDE	-0.1498393
-4.270478	BESIDES	-0.1838514
-3.76256	BEST	-0.3862071
-4.544131	BET	-0.1838514
-4.651732	BETA	-0.2065464
-5.032494	BETCHA	-0.1498393
-5.032494	BETENBERG	-0.1498393
-3.196079	BETTER	-0.5673968
-4.795097	BETWE	-0.1498393
-2.983841	BETWEEN	-0.5007299
-5.032494	BETWEENS	-0.1498393
-4.10391	BEYOND	-0.2922786
-4.386098	BHATTACHARYA	-0.2338853
-4.324452	BI	-0.1766011
-4.887422	BIAS	-0.2684805
-4.544131	BIASED	-0.368696
-5.032494	BIC	-0.1498393
-4.887422	BICYCLE	-0.1498393
-3.307604	BIG	-0.3840957
-3.553874	BIGGER	-0.3585702
-4.457966	BIGGEST	-0.199451
-4.887422	BIKE	-0.1498393
-5.032494	BIKES	-0.1498393
-5.032494	BIL	-0.1498393
-4.887422	BILL	-0.1498393
-4.887422	BILLING	-0.1498393
-5.032494	BILLION	-0.1498393
-4.544131	BIN	-0.2272228
-5.032494	BINARIES	-0.1498393
-5.032494	BINARY	-0.1498393
-5.032494	BINGWINGS	-0.1498393
-5.032494	BINS	-0.2684805
-4.651732	BIO	-0.2445033
-5.032494	BIOLOGY	-0.1498393
-5.032494	BIOMORPHIC	-0.1498393
-4.324452	BIRD	-0.8008058
-4.651732	BIRDS	-0.2051211
-5.032494	BIRTHDAY	-0.1498392
-5.032494	BIS	-0.1498393
-5.032494	BISCUITS	-0.1498393
-3.360449	BIT	-0.610229
-4.651732	BIT'S	-0.2717859
-5.032494	BITCH	-0.1498393
-4.887422	BITE	-0.2684805
-3.664255	BITS	-0.5042417
-5.032494	BITTEN	-0.1498393
-5.032494	BITTER	-0.1498393
-4.795097	BIZARRE	-0.2051211
-4.651732	BL	-0.1498393
-4.887422	BLA	-0.1498393
-3.392846	BLACK	-0.5399555
-4.795097	BLACK'S	-0.1498393
-5.032494	BLACKBERRY	-0.1498393
-5.032494	BLACKPOOL	-0.1498393
-5.032494	BLACKS	-0.1498393
-4.179257	BLAH	-0.6173977
-4.651732	BLAME	-0.1498393
-5.032494	BLAND	-0.1498393
-3.958344	BLANK	-0.4281704
-5.032494	BLANKET	-0.1498393
-4.795097	BLANKETING	-0.2136259
-4.887422	BLANKS	-0.1498393
-5.032494	BLAST	-0.1498393
-5.032494	BLASTING	-0.1498393
-5.032494	BLAYLOCK	-0.2684805
-5.032494	BLAYLOCK'S	-0.1498393
-4.386098	BLEEP	-0.2386324
-4.887422	BLEEPS	-0.1498393
-5.032494	BLEI	-0.1498393
-4.887422	BLEND	-0.2684805
-4.795097	BLENDED	-0.2717859
-5.032494	BLENDER	-0.1498393
-5.032494	BLENDS	-0.1498393
-5.032494	BLESS	-0.2684805
-4.795097	BLIND	-0.1498393
-4.887422	BLINDLY	-0.1498393
-4.795097	BLING	-0.3956201
-4.010869	BLINK	-0.1974987
-5.032494	BLINKED	-0.1498393
-4.270478	BLINKING	-0.2198485
-4.179257	BLINKS	-0.2315222
-5.032494	BLOATED	-0.1498393
-4.887422	BLOB	-0.1498393
-5.032494	BLOBBY	-0.1498393
-5.032494	BLOBS	-0.1498393
-3.983812	BLOCK	-0.1615303
-4.887422	BLOCKED	-0.1498393
-5.032494	BLOCKING	-0.1498393
-4.10391	BLOCKS	-0.2265579
-5.032494	BLOCKY	-0.1498393
-5.032494	BLOGGS	-0.1498393
-4.887422	BLOODY	-0.1498393
-4.795097	BLOW	-0.1498393
-5.032494	BLOWN	-0.1498393
-4.887422	BLOWS	-0.1498393
-3.525576	BLUE	-0.3857448
-5.032494	BLUE'S	-0.1498393
-3.795282	BLUETOOTH	-0.25557
-5.032494	BLUNT	-0.1498393
-5.032494	BLUR	-0.1498393
-5.032494	BLURRED	-0.1498393
-5.032494	BLURRING	-0.1498393
-4.386098	BO	-0.1805625
-5.032494	BOAR	-0.1498393
-3.6281	BOARD	-0.5350658
-5.032494	BOARD'S	-0.1498393
-4.222477	BOARDS	-0.3692254
-5.032494	BOAT	-0.1498393
-3.983812	BOB	-0.2966408
-5.032494	BOB'S	-0.1498393
-4.887422	BOBBY	-0.2684805
-5.032494	BOBS	-0.1498393
-5.032494	BODE	-0.1498393
-5.032494	BODIES	-0.1498393
-4.139952	BODY	-0.1887631
-5.032494	BODY'S	-0.1498393
-4.887422	BOG	-0.2684805
-5.032494	BOIL	-0.1498393
-5.032494	BOILS	-0.1498393
-4.457966	BOLD	-0.1986195
-4.795097	BOLT	-0.1498393
-5.032494	BOLTS	-0.1498393
-4.887422	BOMB	-0.2717859
-4.887422	BON	-0.1498393
-5.032494	BOND	-0.1498393
-4.887422	BONE	-0.1498393
-5.032494	BONG	-0.1498393
-5.032494	BONGIORNO	-0.2684805
-5.032494	BONUS	-0.2051211
-4.887422	BONUSES	-0.1498393
-5.032494	BOO	-0.1498393
-3.958344	BOOK	-0.2834155
-4.386098	BOOKED	-0.1498393
-4.457966	BOOKING	-0.4904642
-4.324452	BOOKLET	-0.1998673
-4.386098	BOOKS	-0.2065464
-5.032494	BOOKSHELF	-0.1498393
-5.032494	BOOKSHELVES	-0.1498393
-5.032494	BOOMING	-0.1498393
-5.032494	BOOST	-0.1498393
-5.032494	BOOSTED	-0.1498393
-4.544131	BOOT	-0.2494153
-5.032494	BOOTING	-0.1498393
-4.887422	BORDER	-0.1859013
-4.887422	BORDERS	-0.1498393
-5.032494	BORE	-0.1498393
-4.651732	BORED	-0.2051211
-5.032494	BOREDOM	-0.1498393
-3.830672	BORING	-0.2350487
-5.032494	BORNET	-0.1498393
-4.887422	BORROW	-0.1498393
-4.887422	BORROWED	-0.1498393
-4.222477	BOSS	-0.4254428
-4.887422	BOSSES	-0.2706813
-4.887422	BOSTON	-0.2684805
-5.032494	BOT	-0.1498393
-5.032494	BOTCHED	-0.1498393
-3.209101	BOTH	-0.432492
-4.010869	BOTHER	-0.2800598
-4.651732	BOTHERED	-0.1934874
-4.887422	BOTHERING	-0.1498393
-4.887422	BOTHERS	-0.1498393
-4.795097	BOTTLE	-0.2252311
-4.887422	BOTTLENECK	-0.1498393
-3.934286	BOTTOM	-0.4768368
-4.887422	BOTTOMS	-0.1498393
-5.032494	BOUGH	-0.1498393
-4.179257	BOUGHT	-0.3125759
-4.324452	BOUNCE	-0.1711152
-5.032494	BOUNCED	-0.1498393
-5.032494	BOUNCES	-0.1498393
-4.457966	BOUNCING	-0.1859013
-5.032494	BOUNCY	-0.1498393
-4.544131	BOUND	-0.5432989
-4.324452	BOUNDARIES	-0.263625
-4.544131	BOUNDARY	-0.1986195
-5.032494	BOUT	-0.1498393
-5.032494	BOW	-0.1498393
-4.795097	BOWL	-0.2941696
-3.563732	BOX	-0.4345811
-5.032494	BOXED	-0.1498393
-4.386098	BOXES	-0.1735449
-4.887422	BOXY	-0.1498393
-4.324452	BOY	-0.1766012
-5.032494	BOYFRIEND	-0.1498393
-5.032494	BOYS	-0.1498393
-4.651732	BR	-0.1498393
-5.032494	BRA	-0.1498393
-4.544131	BRACKET	-0.2941696
-5.032494	BRACKETING	-0.1498393
-4.651732	BRACKETS	-0.2272228
-4.324452	BRAIN	-0.1498393
-4.887422	BRAINS	-0.2684805
-4.795097	BRAINSTORM	-0.2051211
-4.887422	BRAINSTORMED	-0.1498393
-4.544131	BRAINSTORMING	-0.1498393
-5.032494	BRAKE	-0.1498393
-4.651732	BRANCH	-0.1498393
-5.032494	BRANCHES	-0.1498393
-3.958344	BRAND	-0.2669588
-5.032494	BRANDED	-0.1498393
-4.795097	BRANDING	-0.1498393
-4.457966	BRANDS	-0.1998673
-4.887422	BRAVO	-0.2684805
-5.032494	BREA	-0.1498393
-5.032494	BREADTH	-0.1498393
-3.6281	BREAK	-0.4699152
-4.544131	BREAKABLE	-0.1498393
-5.032494	BREAKAGE	-0.1498393
-5.032494	BREAKAGES	-0.1498393
-4.651732	BREAKDOWN	-0.2684805
-4.179257	BREAKING	-0.1868097
-4.179257	BREAKS	-0.2811814
-5.032494	BREAKTHROUGH	-0.1498393
-4.651732	BREATH	-0.1498393
-4.887422	BREATHING	-0.2684805
-4.887422	BREATHS	-0.2684805
-4.887422	BRI	-0.1498393
-4.386098	BRIAN	-0.4486233
-5.032494	BRICK	-0.1498393
-4.887422	BRICKS	-0.1498393
-4.651732	BRIDGE	-0.1934874
-4.270478	BRIEF	-0.1859012
-4.651732	BRIEFING	-0.1498393
-4.10391	BRIEFLY	-0.1498393
-3.703696	BRIGHT	-0.4417523
-5.032494	BRIGHTER	-0.1498393
-5.032494	BRIGHTLY	-0.1498393
-5.032494	BRIGHTN	-0.1498393
-3.795282	BRIGHTNESS	-0.4489356
-5.032494	BRILLIANCE	-0.1498393
-4.070632	BRILLIANT	-0.6182512
-5.032494	BRILLIANTLY	-0.1498393
-3.6281	BRING	-0.4525943
-4.222477	BRINGING	-0.1893331
-4.386098	BRINGS	-0.2831708
-4.795097	BRITAIN	-0.1498393
-4.795097	BRITISH	-0.1934874
-4.887422	BRNO	-0.1498393
-3.732131	BROAD	-0.5717362
-5.032494	BROADBAND	-0.1498393
-5.032494	BROADCASTING	-0.1498393
-4.887422	BROADEN	-0.1498393
-4.544131	BROADER	-0.1934874
-5.032494	BROADLY	-0.1498393
-5.032494	BROADNESS	-0.1498393
-5.032494	BROCCOLI	-0.1498393
-5.032494	BROER	-0.1498393
-4.10391	BROKE	-0.2811814
-3.958344	BROKEN	-0.2341975
-5.032494	BROOKLYN	-0.1498393
-4.651732	BROTHER	-0.3956201
-5.032494	BROTHER'S	-0.1498393
-4.010869	BROUGHT	-0.5271373
-4.386098	BROWN	-0.2265579
-5.032494	BROWNIE	-0.1498393
-4.270478	BROWSE	-0.272508
-4.10391	BROWSER	-0.3039859
-4.795097	BROWSERS	-0.1498393
-4.139952	BROWSING	-0.2004292
-4.544131	BRUNO	-0.1766012
-4.887422	BRUSHED	-0.1498393
-5.032494	BRUSHES	-0.1498393
-4.887422	BRUSSELS	-0.1498393
-5.032494	BT	-0.1498393
-3.747079	BU	-0.4687266
-4.887422	BUBBLE	-0.1498393
-4.795097	BUBBLES	-0.2051211
-5.032494	BUCCIANTINI	-0.1498393
-5.032494	BUCK	-0.1498393
-5.032494	BUCKET	-0.1498393
-4.887422	BUCKETS	-0.1498393
-5.032494	BUCKLEY	-0.2684805
-4.795097	BUCKS	-0.4456092
-5.032494	BUDDHIST	-0.1498393
-3.732131	BUDGET	-0.4938902
-5.032494	BUDGET'S	-0.1498393
-5.032494	BUDGETED	-0.1498393
-4.887422	BUDGETING	-0.1498393
-5.032494	BUFFER	-0.1498393
-5.032494	BUFFERING	-0.1498393
-4.544131	BUG	-0.1998673
-5.032494	BUGGER	-0.1498393
-4.386098	BUGS	-0.1766012
-5.032494	BUIL	-0.1498393
-3.76256	BUILD	-0.4308288
-4.544131	BUILDER	-0.3052079
-5.032494	BUILDER'S	-0.1498393
-5.032494	BUILDERS	-0.1498393
-3.703696	BUILDING	-0.3112297
-4.887422	BUILDINGS	-0.1498393
-4.795097	BUILDS	-0.1498393
-3.911491	BUILT	-0.4490716
-4.270478	BULB	-0.2557945
-4.887422	BULBS	-0.1498392
-5.032494	BULGE	-0.1498393
-5.032494	BULGES	-0.1498393
-4.651732	BULK	-0.1859013
-5.032494	BULKIER	-0.1498393
-5.032494	BULKIEST	-0.1498393
-4.386098	BULKY	-0.2576989
-4.270478	BULLET	-0.2182467
-5.032494	BULLETIN	-0.1498393
-4.795097	BULLETS	-0.1498393
-5.032494	BUMBLEBEEISH	-0.1498393
-5.032494	BUMMER	-0.1498393
-4.544131	BUMP	-0.1498393
-4.887422	BUMPED	-0.1498393
-5.032494	BUMPER	-0.1498393
-5.032494	BUMPING	-0.1498393
-4.795097	BUMPS	-0.1498393
-4.544131	BUNCH	-1.18824
-5.032494	BUNDLE	-0.1498393
-5.032494	BUNDLING	-0.1498393
-5.032494	BUNG	-0.1498393
-5.032494	BUNGING	-0.1498393
-4.544131	BUNNY	-0.2732794
-4.887422	BURDEN	-0.1498393
-5.032494	BUREAU	-0.1498393
-4.795097	BUREAUCRACY	-0.1498393
-4.457966	BURN	-0.2371756
-5.032494	BURNED	-0.1498393
-5.032494	BURNER	-0.1498393
-4.651732	BURNING	-0.1498393
-4.887422	BURNS	-0.1498393
-5.032494	BURRITO	-0.1498393
-5.032494	BURRITOS	-0.2684805
-5.032494	BURS	-0.1498393
-4.795097	BURST	-0.2932231
-5.032494	BURSTING	-0.1498393
-5.032494	BURSTS	-0.1498393
-4.270478	BUS	-0.2904536
-5.032494	BUSES	-0.1498393
-4.070632	BUSINESS	-0.2485846
-5.032494	BUSSING	-0.1498393
-5.032494	BUST	-0.1498393
-3.934286	BUSY	-0.309359
-2.212646	BUT	-1.222266
-4.887422	BUTS	-0.1498393
-4.887422	BUTT	-0.1498393
-4.544131	BUTTERFLY	-0.1805625
-5.032494	BUTTES	-0.1498393
-5.032494	BUTTLE	-0.1498393
-4.887422	BUTTO	-0.1498393
-2.904903	BUTTON	-0.7974214
-4.222477	BUTTON'S	-0.1859013
-5.032494	BUTTONLESS	-0.1498393
-2.775372	BUTTONS	-0.899151
-5.032494	BUTTONS'LL	-0.1498393
-3.584146	BUY	-0.6419469
-4.795097	BUYER	-0.3214501
-4.887422	BUYERS	-0.1498393
-3.889833	BUYING	-0.2586596
-4.887422	BUYS	-0.1498393
-4.795097	BUZZ	-0.1498393
-4.887422	BUZZER	-0.1498393
-5.032494	BUZZES	-0.1498393
-5.032494	BUZZING	-0.1498393
-2.631595	BY	-0.4905628
-4.795097	BYE	-0.7144545
-5.032494	BYPRODUCT	-0.1498393
-4.651732	BYTE	-0.1498393
-5.032494	BZZ	-0.1498393
-3.187609	C	-0.5027779
-4.887422	C'EST	-0.1498393
-3.354249	C.	-1.068909
-3.889833	CA	-0.3729065
-3.830672	CABLE	-0.3487383
-5.032494	CABLE'S	-0.1498393
-4.324452	CABLES	-0.1945971
-5.032494	CABOODLE	-0.1498393
-4.270478	CACHE	-0.3595682
-5.032494	CACHET	-0.1498393
-5.032494	CAFE	-0.1498393
-4.887422	CAFETERIA	-0.1498393
-5.032494	CAFFEINE	-0.1498393
-4.887422	CAGE	-0.1498393
-5.032494	CAGED	-0.1498393
-5.032494	CAKE	-0.1498393
-5.032494	CAL	-0.1498393
-5.032494	CALCULA	-0.1498393
-3.983812	CALCULATE	-0.3296338
-4.222477	CALCULATED	-0.1691374
-4.795097	CALCULATES	-0.1498393
-4.544131	CALCULATING	-0.1805625
-4.270478	CALCULATION	-0.1934874
-5.032494	CALCULATION'S	-0.1498393
-4.795097	CALCULATIONS	-0.1498393
-4.324452	CALCULATOR	-0.2628829
-5.032494	CALCULATOR'S	-0.1498393
-4.386098	CALCULATORS	-0.1805626
-4.887422	CALENDAR	-0.2684805
-5.032494	CALI	-0.1498393
-5.032494	CALIBRATE	-0.1498393
-4.795097	CALIBRATED	-0.1498393
-5.032494	CALIBRATEDS	-0.1498393
-4.651732	CALIBRATION	-0.1859012
-4.544131	CALIFORNIA	-0.2152874
-3.534805	CALL	-0.5594414
-3.703696	CALLED	-0.3059404
-5.032494	CALLER	-0.1498393
-4.139952	CALLING	-0.2260266
-5.032494	CALLINGS	-0.1498393
-5.032494	CALLOUSLY	-0.1498393
-4.222477	CALLS	-0.1649293
-4.795097	CALM	-0.1498393
-5.032494	CALMER	-0.1498393
-5.032494	CALMS	-0.1498393
-5.032494	CAMBODIA	-0.1498393
-5.032494	CAMBRIDGE	-0.1498393
-3.573819	CAME	-0.6259975
-4.222477	CAMERA	-0.4494858
-4.386098	CAMERAS	-0.2537566
-5.032494	CAMOUFLAGED	-0.1498393
-4.795097	CAMPAIGN	-0.1498393
-5.032494	CAMPFIRE	-0.1498393
-3.830672	CAMTASIA	-0.2058979
-2.739557	CAN	-0.9440943
-3.482159	CAN'T	-0.5844948
-5.032494	CANADA	-0.1498393
-4.651732	CANCEL	-0.1498393
-5.032494	CANCELLATION	-0.1498393
-5.032494	CANCELLED	-0.1498393
-5.032494	CANCER	-0.1498393
-4.887422	CANDIDATE	-0.1498393
-4.544131	CANDIDATES	-0.1934874
-5.032494	CANDLE	-0.1498393
-4.887422	CANDY	-0.1498393
-3.849511	CANNOT	-0.3318952
-5.032494	CANONICAL	-0.1498393
-5.032494	CANS	-0.1498393
-4.544131	CAP	-0.1498393
-5.032494	CAPA	-0.1498393
-4.887422	CAPABILITIES	-0.1498393
-4.795097	CAPABILITY	-0.1498393
-4.222477	CAPABLE	-0.3514966
-5.032494	CAPACIT	-0.1498393
-5.032494	CAPACITATOR	-0.1498393
-5.032494	CAPACITIES	-0.1498393
-5.032494	CAPACITOR	-0.1498393
-5.032494	CAPACITORS	-0.1498393
-4.544131	CAPACITY	-0.1934874
-5.032494	CAPARICA	-0.1498393
-4.544131	CAPITAL	-0.1498393
-4.795097	CAPITALISATION	-0.2252311
-4.544131	CAPITALISE	-0.1498393
-4.887422	CAPITALISED	-0.2717859
-5.032494	CAPITALISING	-0.1498393
-5.032494	CAPITALS	-0.1498393
-5.032494	CAPS	-0.1498393
-4.795097	CAPSICUM	-0.1498393
-5.032494	CAPTIVE	-0.1498393
-4.324452	CAPTURE	-0.1784453
-4.795097	CAPTURED	-0.1498393
-4.544131	CAPTURING	-0.1859013
-4.270478	CAR	-0.2262258
-4.887422	CARAMEL	-0.3214501
-3.934286	CARD	-0.4104565
-5.032494	CARDINAUX	-0.1498393
-4.386098	CARDS	-0.3555371
-3.983812	CARE	-0.6654541
-4.386098	CAREFUL	-0.4477056
-4.795097	CAREFULLY	-0.1498393
-5.032494	CARELESSNESS	-0.1498393
-4.795097	CARES	-0.2051211
-4.795097	CARETS	-0.2420176
-5.032494	CARMEN	-0.1498393
-5.032494	CAROL	-0.1498393
-4.457966	CAROLINE	-0.2706814
-4.887422	CARPAL	-0.1498393
-5.032494	CARPETS	-0.1498393
-4.457966	CARRIED	-0.2701301
-4.222477	CARRIER	-0.4337004
-5.032494	CARRIES	-0.1498393
-4.544131	CARROT	-0.1859013
-5.032494	CARROTS	-0.1498393
-4.10391	CARRY	-0.3819244
-4.457966	CARRYING	-0.1859013
-4.324452	CARS	-0.2349925
-5.032494	CART	-0.1498393
-5.032494	CARTON	-0.1498393
-4.457966	CARTOON	-0.1859013
-5.032494	CARTOONISH	-0.1498393
-5.032494	CARTOONS	-0.1498393
-5.032494	CARVE	-0.1498393
-5.032494	CARVED	-0.1498393
-3.318804	CASE	-0.6667072
-4.795097	CASED	-0.1498393
-3.732131	CASES	-0.3688933
-4.544131	CASH	-0.1934874
-3.778613	CASING	-0.3498238
-4.457966	CASINGS	-0.1498393
-5.032494	CASSP	-0.1498393
-4.651732	CAST	-0.2717859
-5.032494	CASTING	-0.1498393
-5.032494	CASTRATI	-0.1498393
-3.778613	CAT	-0.5502121
-4.651732	CAT'S	-0.1498392
-4.651732	CATALOGUE	-0.2272228
-4.139952	CATCH	-0.2470833
-4.795097	CATCHING	-0.1498393
-4.457966	CATCHY	-0.2883281
-3.983812	CATEGORIES	-0.4008625
-5.032494	CATEGORISATION	-0.1498393
-4.795097	CATEGORISE	-0.1498393
-5.032494	CATEGORISED	-0.1498393
-4.651732	CATEGORISING	-0.1498393
-5.032494	CATEGORIZATION	-0.1498393
-3.830672	CATEGORY	-0.4385249
-4.651732	CATERING	-0.2717859
-5.032494	CATERS	-0.1498393
-5.032494	CATHEDRAL	-0.1498393
-4.386098	CATHERINE	-0.1766012
-3.983812	CATS	-0.4853031
-5.032494	CATWALKS	-0.1498393
-4.887422	CAU	-0.1498393
-4.795097	CAUGHT	-0.2252311
-4.070632	CAUSE	-0.1615303
-4.795097	CAUSED	-0.1498393
-4.457966	CAUSES	-0.1859012
-4.887422	CAUSING	-0.1498393
-4.887422	CAUTIOUS	-0.2684805
-4.795097	CE	-0.1498393
-5.032494	CEASE	-0.1498393
-4.887422	CEASES	-0.2684805
-5.032494	CEDRIC	-0.1498393
-5.032494	CEDS	-0.1498393
-5.032494	CEEFAX	-0.1498393
-5.032494	CEILING	-0.2684805
-5.032494	CEILINGS	-0.1498393
-5.032494	CELEBRA	-0.1498393
-4.324452	CELEBRATE	-0.4468823
-5.032494	CELEBRATING	-0.1498393
-4.324452	CELEBRATION	-0.4495844
-3.869204	CELL	-0.4844079
-5.032494	CELLPHONE	-0.1498393
-4.887422	CELLPHONES	-0.1498393
-4.324452	CELLS	-0.4544947
-5.032494	CELLULAR	-0.1498393
-4.179257	CELP	-0.3021273
-4.795097	CEN	-0.1498393
-4.887422	CENT	-0.5123291
-4.887422	CENTIMES	-0.1498393
-4.795097	CENTIMETRE	-0.1498393
-4.222477	CENTIMETRES	-0.272508
-4.887422	CENTR	-0.1498393
-4.179257	CENTRAL	-0.2227241
-5.032494	CENTRALISE	-0.1498393
-4.887422	CENTRALLY	-0.1498393
-3.849511	CENTRE	-0.2858012
-4.386098	CENTRED	-0.362801
-5.032494	CENTRES	-0.1498393
-4.324452	CENTS	-0.4036721
-5.032494	CENTURY	-0.1498393
-5.032494	CEPSTRAL	-0.1498393
-4.651732	CER	-0.2051211
-4.887422	CERN	-0.4463889
-3.507685	CERTAIN	-0.2820931
-3.544235	CERTAINLY	-0.2533284
-5.032494	CERTAINTY	-0.1498393
-5.032494	CERTIFICATES	-0.1498393
-5.032494	CERTIN	-0.1498393
-4.795097	CETERA	-0.5874231
-3.732131	CH	-0.2392699
-4.324452	CHA	-0.1498393
-4.544131	CHAIR	-0.2941696
-4.887422	CHAIRMAN	-0.1498393
-4.386098	CHAIRS	-0.2065464
-4.795097	CHALK	-0.1498393
-4.270478	CHALLENGE	-0.1691374
-5.032494	CHALLENGED	-0.1498393
-4.795097	CHALLENGING	-0.1498393
-5.032494	CHAMELEON	-0.1498393
-4.544131	CHAMPAGNE	-0.3701894
-4.544131	CHAN	-0.2272228
-4.270478	CHANCE	-0.3442081
-4.795097	CHANCES	-0.2252311
-5.032494	CHANG	-0.1498393
-3.27564	CHANGE	-0.6567205
-4.139952	CHANGEABLE	-0.4477651
-3.911491	CHANGED	-0.2833379
-5.032494	CHANGER	-0.1498393
-4.887422	CHANGERS	-0.1498393
-3.6281	CHANGES	-0.4339891
-3.473974	CHANGING	-0.5053395
-4.887422	CHANNE	-0.1498393
-3.010899	CHANNEL	-0.6659422
-5.032494	CHANNEL'LL	-0.1498393
-5.032494	CHANNEL'S	-0.1498393
-5.032494	CHANNELLING	-0.1498393
-3.27564	CHANNELS	-0.5984043
-5.032494	CHAPTER	-0.1498393
-4.795097	CHAPTERS	-0.1498393
-5.032494	CHAR	-0.1498393
-5.032494	CHARA	-0.1498393
-4.887422	CHARAC	-0.1498393
-5.032494	CHARACTER	-0.1498393
-5.032494	CHARACTERIS	-0.1498393
-4.651732	CHARACTERISE	-0.1498393
-5.032494	CHARACTERISED	-0.1498393
-5.032494	CHARACTERISING	-0.1498393
-4.457966	CHARACTERISTIC	-0.2252311
-4.222477	CHARACTERISTICS	-0.5530264
-4.386098	CHARACTERS	-0.1498393
-5.032494	CHARAS	-0.1498393
-4.010869	CHARGE	-0.2207678
-4.544131	CHARGEABLE	-0.2706813
-4.795097	CHARGED	-0.1498393
-5.032494	CHARGEMENT	-0.1498393
-4.324452	CHARGER	-0.305138
-4.887422	CHARGES	-0.3236845
-4.139952	CHARGING	-0.2123641
-5.032494	CHARIS	-0.1498393
-5.032494	CHARLOTTE'S	-0.1498393
-4.887422	CHARMED	-0.1498393
-4.887422	CHART	-0.1498393
-5.032494	CHARTED	-0.1498393
-4.887422	CHARTS	-0.1498393
-4.795097	CHASE	-0.1498393
-5.032494	CHASES	-0.1498393
-4.887422	CHASING	-0.1498393
-4.324452	CHAT	-0.1711152
-5.032494	CHATTER	-0.1498393
-5.032494	CHATTING	-0.1498393
-4.795097	CHE	-0.1498393
-3.573819	CHEAP	-0.4445377
-3.830672	CHEAPER	-0.4875914
-4.324452	CHEAPEST	-0.197578
-5.032494	CHEAPIE	-0.1498393
-4.795097	CHEAPLY	-0.2051211
-5.032494	CHEAPS	-0.1498393
-5.032494	CHEAPY	-0.1498393
-5.032494	CHEC	-0.1498393
-3.63982	CHECK	-0.46514
-4.324452	CHECKED	-0.2260267
-4.887422	CHECKER	-0.1498393
-5.032494	CHECKERS'	-0.1498393
-3.958344	CHECKING	-0.2773322
-5.032494	CHECKS	-0.1498393
-5.032494	CHEEKY	-0.1498393
-4.887422	CHEERFUL	-0.1498393
-4.795097	CHEERS	-0.9904569
-5.032494	CHEERY	-0.1498393
-5.032494	CHEESED	-0.1498393
-5.032494	CHEJU	-0.1498393
-5.032494	CHERNOTSKY	-0.1498393
-5.032494	CHERRIES	-0.1498393
-4.386098	CHERRY	-0.1674961
-5.032494	CHES	-0.1498393
-4.386098	CHEW	-0.3092119
-4.386098	CHI	-0.2182467
-4.651732	CHIC	-0.2051211
-4.795097	CHIEF	-0.368696
-4.887422	CHIL	-0.2252311
-4.179257	CHILD	-0.208839
-4.887422	CHILD'S	-0.1498393
-4.651732	CHILDISH	-0.1498393
-5.032494	CHILDISHLY	-0.1498393
-3.732131	CHILDREN	-0.3151567
-4.651732	CHILDREN'S	-0.2272228
-4.887422	CHILE	-0.1498393
-5.032494	CHILL	-0.1498393
-4.795097	CHINA	-0.1859013
-4.887422	CHINESE	-0.1498393
-3.296686	CHIP	-0.7363853
-5.032494	CHIP'S	-0.1498393
-5.032494	CHIPPING	-0.1498393
-5.032494	CHIPPY	-0.1498393
-3.651866	CHIPS	-0.4099517
-4.887422	CHIQUITA	-0.2684805
-4.795097	CHO	-0.2252311
-5.032494	CHOCOLATE	-0.1498393
-4.887422	CHOCOLATES	-0.1498393
-3.934286	CHOICE	-0.4574223
-4.010869	CHOICES	-0.2110381
-4.544131	CHOO	-0.1498393
-3.605567	CHOOSE	-0.4974385
-5.032494	CHOOSES	-0.1498393
-4.270478	CHOOSING	-0.24792
-4.651732	CHOP	-0.2051211
-4.795097	CHOPPED	-0.1498393
-5.032494	CHOPPING	-0.1498393
-4.887422	CHORD	-0.1498393
-5.032494	CHORUS	-0.1498393
-5.032494	CHOS	-0.1498393
-4.457966	CHOSE	-0.2098358
-4.386098	CHOSEN	-0.1868098
-4.887422	CHRIS	-0.1498393
-5.032494	CHRIST'S	-0.1498393
-4.457966	CHRISTA	-0.2706813
-4.887422	CHRISTINE	-0.2252311
-4.386098	CHRISTMAS	-0.1986195
-5.032494	CHRISTOS	-0.1498393
-4.795097	CHROME	-0.2252311
-5.032494	CHRONOLOGICAL	-0.1498393
-5.032494	CHRYSTLER	-0.1498393
-4.795097	CHUCK	-0.1498393
-5.032494	CHUCKED	-0.1498393
-4.179257	CHUNK	-0.1674961
-4.544131	CHUNKED	-0.2941696
-4.795097	CHUNKER	-0.1498393
-5.032494	CHUNKINESS	-0.1498393
-4.010869	CHUNKING	-0.2271722
-3.958344	CHUNKS	-0.2768807
-4.457966	CHUNKY	-0.1859013
-5.032494	CI	-0.1498393
-5.032494	CINEMA	-0.1498393
-4.222477	CINETIS	-0.2328822
-5.032494	CINTETIS	-0.1498393
-4.887422	CIR	-0.1498393
-4.070632	CIRCLE	-0.2308682
-4.887422	CIRCLES	-0.1498393
-5.032494	CIRCLING	-0.1498393
-3.6281	CIRCUIT	-0.6984171
-4.795097	CIRCUITRY	-0.1498393
-4.222477	CIRCUITS	-0.263625
-4.270478	CIRCULAR	-0.1711152
-4.887422	CIRCULATE	-0.1498393
-5.032494	CIRCULATING	-0.1498393
-4.887422	CIRCUMSTANCES	-0.1498393
-5.032494	CIRCUMVENTING	-0.1498393
-4.795097	CITATION	-0.1498393
-5.032494	CITED	-0.1498393
-4.795097	CITIES	-0.2252311
-4.887422	CITIZENS	-0.1498393
-5.032494	CITRUS	-0.1498393
-4.795097	CITY	-0.1498393
-4.386098	CL	-0.1498393
-5.032494	CLA	-0.1498393
-4.386098	CLAIM	-0.3229384
-5.032494	CLAIMED	-0.1498393
-4.887422	CLAIMING	-0.1498393
-5.032494	CLAIMS	-0.1498393
-4.651732	CLAIRE	-0.1934874
-4.179257	CLAP	-0.2471817
-5.032494	CLAPPER	-0.1498393
-4.222477	CLAPPING	-0.1639068
-5.032494	CLAPS	-0.1498393
-5.032494	CLARE	-0.1498393
-4.795097	CLARIFICATION	-0.1498393
-5.032494	CLARIFIED	-0.1498393
-4.887422	CLARIFY	-0.1498393
-4.887422	CLARITY	-0.1498393
-4.887422	CLARK	-0.1498393
-4.887422	CLASH	-0.1498393
-4.887422	CLASHING	-0.2252311
-3.812617	CLASS	-0.4402847
-4.179257	CLASSES	-0.1661121
-5.032494	CLASSI	-0.1498393
-4.651732	CLASSIC	-0.1498393
-4.179257	CLASSICAL	-0.1830184
-4.887422	CLASSICALLY	-0.1498393
-5.032494	CLASSIER	-0.1498393
-5.032494	CLASSIF	-0.1498393
-4.386098	CLASSIFICATION	-0.2051211
-4.887422	CLASSIFIED	-0.1498393
-5.032494	CLASSIFY	-0.1498393
-5.032494	CLASSROOM	-0.1498393
-4.887422	CLAUSE	-0.2252311
-4.070632	CLAY	-0.4664234
-4.179257	CLEAN	-0.2405446
-5.032494	CLEANABLE	-0.1498393
-5.032494	CLEANED	-0.1498393
-5.032494	CLEANER	-0.1498393
-4.795097	CLEANING	-0.1498393
-5.032494	CLEANS	-0.1498393
-3.420625	CLEAR	-0.4859101
-4.222477	CLEARER	-0.1893331
-3.732131	CLEARLY	-0.1998272
-4.457966	CLEVER	-0.1498393
-3.605567	CLICK	-0.5095294
-4.887422	CLICKABLE	-0.1498393
-4.795097	CLICKED	-0.2252311
-4.457966	CLICKING	-0.2265579
-4.887422	CLICKS	-0.1498393
-5.032494	CLICKY	-0.1498393
-4.887422	CLIENT	-0.1766012
-4.795097	CLIENTS	-0.2252311
-5.032494	CLIMB	-0.1498393
-5.032494	CLIMBING	-0.1498393
-4.179257	CLIP	-0.2900959
-5.032494	CLIPPED	-0.1498393
-4.544131	CLIPS	-0.1934874
-4.887422	CLOAK	-0.1498393
-5.032494	CLOBBER	-0.1498393
-4.139952	CLOCK	-0.3100252
-5.032494	CLOCK'S	-0.1498393
-4.887422	CLOCKS	-0.1498393
-4.887422	CLOCKY	-0.1498393
-3.435211	CLOSE	-0.6017928
-4.070632	CLOSED	-0.2658766
-4.386098	CLOSELY	-0.1805626
-4.179257	CLOSER	-0.394338
-4.651732	CLOSES	-0.2051211
-4.651732	CLOSEST	-0.2941696
-4.039723	CLOSING	-0.362598
-5.032494	CLOSURE	-0.1498393
-4.887422	CLOTH	-0.1498393
-4.887422	CLOTHE	-0.1498393
-4.222477	CLOTHES	-0.5350274
-4.386098	CLOTHING	-0.2445033
-5.032494	CLOTHS	-0.2684805
-4.544131	CLOUD	-0.1498393
-4.324452	CLOUDS	-0.3029808
-5.032494	CLOWN	-0.1498393
-5.032494	CLUB	-0.1498393
-4.795097	CLUE	-0.3786624
-5.032494	CLUMSY	-0.1498393
-5.032494	CLUNKER	-0.1498393
-4.270478	CLUNKY	-0.2963749
-5.032494	CLUS	-0.1498393
-4.039723	CLUSTER	-0.2506365
-4.887422	CLUSTERED	-0.1498393
-3.983812	CLUSTERING	-0.4273714
-5.032494	CLUSTERINGS	-0.1498393
-4.544131	CLUSTERS	-0.2272228
-4.887422	CLUTTER	-0.1498393
-4.651732	CLUTTERED	-0.1934874
-5.032494	CLUTTERING	-0.1498393
-3.63982	CO	-0.1960642
-4.457966	COACH	-0.5666594
-4.887422	COACHES	-0.1498393
-5.032494	COACHING	-0.1498393
-4.457966	COARSE	-0.2512199
-5.032494	COARSER	-0.1498393
-4.887422	COAST	-0.1498393
-4.651732	COAT	-0.2717859
-5.032494	COATED	-0.1498393
-4.795097	COATING	-0.1934874
-5.032494	COATINGS	-0.1498393
-5.032494	COBBLE	-0.1498393
-4.795097	COBRA	-0.271786
-5.032494	COCHRANE	-0.1498393
-5.032494	COCKNEY	-0.1498393
-5.032494	COCKTAILS	-0.1498393
-5.032494	COCONUT	-0.2684805
-3.482159	CODE	-0.373792
-5.032494	CODE'S	-0.1498393
-4.887422	CODEC	-0.1498393
-5.032494	CODECS	-0.1498393
-4.457966	CODED	-0.1805626
-5.032494	CODER	-0.1498393
-5.032494	CODERS	-0.1498393
-4.222477	CODES	-0.2563457
-3.664255	CODING	-0.3364574
-5.032494	CODINGS	-0.1498393
-4.795097	COEFFICIENT	-0.1498393
-4.544131	COEFFICIENTS	-0.2152874
-5.032494	COF	-0.1498393
-3.812617	COFFEE	-0.5352269
-5.032494	COFFEEMAKER	-0.1498393
-5.032494	COG	-0.1498393
-4.795097	COGNITIVE	-0.1498393
-4.544131	COHEN	-0.2252311
-4.887422	COHEN'S	-0.1498393
-4.324452	COHERENT	-0.1498393
-5.032494	COHESIVE	-0.1498393
-5.032494	COINCIDE	-0.1498393
-5.032494	COINCIDES	-0.1498393
-5.032494	COKE	-0.1498393
-4.651732	COL	-0.1498393
-4.324452	COLD	-0.1735449
-5.032494	COLF	-0.1498393
-4.651732	COLIN	-0.1498393
-4.887422	COLIN'S	-0.1498393
-4.887422	COLLABORATE	-0.2684805
-4.651732	COLLABORATING	-0.1498393
-4.457966	COLLABORATION	-0.2272228
-5.032494	COLLABORATIONS	-0.1498393
-4.324452	COLLABORATIVE	-0.3448491
-5.032494	COLLAGEN	-0.1498393
-5.032494	COLLAPSE	-0.1498393
-5.032494	COLLATE	-0.1498393
-4.795097	COLLEAGUE	-0.1498393
-4.795097	COLLEAGUES	-0.1498393
-4.386098	COLLECT	-0.1859013
-4.457966	COLLECTED	-0.1498393
-4.651732	COLLECTING	-0.2051211
-4.324452	COLLECTION	-0.3212826
-5.032494	COLLECTIONS	-0.1498393
-5.032494	COLLECTIVE	-0.1498393
-4.887422	COLLECTIVELY	-0.1498393
-5.032494	COLLEGE	-0.1498393
-5.032494	COLLIDES	-0.1498393
-5.032494	COLLISIONS	-0.1498393
-4.795097	COLO	-0.1498393
-3.042749	COLOUR	-0.6870422
-4.795097	COLOUR'S	-0.1498393
-4.887422	COLOURATION	-0.1498393
-4.795097	COLOURBLIND	-0.2051211
-3.934286	COLOURED	-0.2516264
-3.983812	COLOURFUL	-0.3325366
-5.032494	COLOURFULS	-0.1498393
-4.887422	COLOURING	-0.1498393
-5.032494	COLOURISED	-0.1498393
-3.17115	COLOURS	-0.6967309
-4.544131	COLUMN	-0.1934874
-4.651732	COLUMNS	-0.2051211
-3.849511	COM	-0.1739371
-4.887422	COMBAT	-0.1498393
-5.032494	COMBATING	-0.1498393
-4.887422	COMBI	-0.1498393
-3.983812	COMBINATION	-0.5482214
-4.544131	COMBINATIONS	-0.2994812
-3.983812	COMBINE	-0.3178001
-4.270478	COMBINED	-0.2841137
-5.032494	COMBINES	-0.1498393
-4.386098	COMBINING	-0.2182467
-3.128862	COME	-0.9733767
-3.458051	COMES	-0.5995514
-5.032494	COMFIER	-0.1498393
-4.544131	COMFORT	-0.3244319
-3.889833	COMFORTABLE	-0.3853213
-4.651732	COMFORTABLY	-0.2252311
-4.795097	COMFY	-0.1498393
-3.379596	COMING	-0.625903
-4.651732	COMMA	-0.1859013
-5.032494	COMMAN	-0.1498393
-3.934286	COMMAND	-0.3402879
-5.032494	COMMANDER	-0.1498393
-5.032494	COMMANDO	-0.1498393
-3.869204	COMMANDS	-0.4362376
-4.324452	COMMAS	-0.3034564
-5.032494	COMMENCE	-0.1498393
-4.070632	COMMENT	-0.2418493
-4.887422	COMMENTED	-0.2684805
-4.10391	COMMENTS	-0.2548524
-4.457966	COMMERCIAL	-0.1498393
-4.887422	COMMERCIALS	-0.1498393
-5.032494	COMMISSION	-0.1498393
-4.887422	COMMIT	-0.2684805
-5.032494	COMMITMENT	-0.1498393
-5.032494	COMMITMENTS	-0.1498393
-5.032494	COMMITTAL	-0.1498393
-5.032494	COMMITTED	-0.1498393
-4.887422	COMMITTEE	-0.1498393
-5.032494	COMMITTING	-0.1498393
-5.032494	COMMITTMENT	-0.1498393
-5.032494	COMMODITIES	-0.1498393
-3.911491	COMMON	-0.2706555
-5.032494	COMMONER	-0.1498393
-4.544131	COMMONLY	-0.1498393
-4.270478	COMMUNICATE	-0.3476866
-5.032494	COMMUNICATED	-0.1498393
-4.795097	COMMUNICATES	-0.2252311
-4.544131	COMMUNICATING	-0.2152875
-4.10391	COMMUNICATION	-0.2666087
-5.032494	COMMUNICATIONS	-0.1498393
-5.032494	COMMUNITY	-0.1498393
-4.324452	COMP	-0.1498393
-5.032494	COMPA	-0.1498393
-4.795097	COMPACT	-0.2252311
-4.179257	COMPANIES	-0.1881188
-5.032494	COMPANIES'	-0.1498393
-5.032494	COMPANION	-0.1498393
-3.563732	COMPANY	-0.4709792
-5.032494	COMPANY'LL	-0.2684805
-4.795097	COMPANY'S	-0.1630141
-4.887422	COMPAR	-0.1498393
-4.651732	COMPARABLE	-0.1498393
-5.032494	COMPARABLY	-0.1498393
-4.887422	COMPARATIVELY	-0.1498393
-4.222477	COMPARE	-0.3071305
-3.703696	COMPARED	-0.8138266
-4.651732	COMPARES	-0.2051211
-4.070632	COMPARING	-0.3327111
-4.651732	COMPARISON	-0.1498393
-4.795097	COMPARTMENT	-0.1498393
-4.887422	COMPASS	-0.2684805
-4.179257	COMPATIBLE	-0.4497449
-5.032494	COMPELLING	-0.1498393
-5.032494	COMPENSATE	-0.1498393
-5.032494	COMPENSATED	-0.1498393
-5.032494	COMPENSATION	-0.1498393
-4.887422	COMPETE	-0.2684805
-4.887422	COMPETING	-0.1498393
-4.386098	COMPETITION	-0.2215719
-4.457966	COMPETITIVE	-0.1859013
-4.887422	COMPETITOR	-0.1498393
-4.457966	COMPETITORS	-0.3075431
-4.887422	COMPILATION	-0.2684805
-4.887422	COMPILE	-0.1498393
-4.795097	COMPILED	-0.1498393
-5.032494	COMPILING	-0.1498393
-4.887422	COMPLAIN	-0.1498393
-4.795097	COMPLAINED	-0.2252311
-4.887422	COMPLAINING	-0.1498393
-5.032494	COMPLAINS	-0.1498393
-4.887422	COMPLAINT	-0.1498393
-4.544131	COMPLAINTS	-0.1498393
-5.032494	COMPLE	-0.1498393
-5.032494	COMPLEMENTARY	-0.1498393
-4.010869	COMPLETE	-0.3098991
-4.795097	COMPLETED	-0.1498393
-3.442692	COMPLETELY	-0.2563092
-4.887422	COMPLETES	-0.1498393
-5.032494	COMPLETING	-0.1498393
-5.032494	COMPLETION	-0.1498393
-3.849511	COMPLEX	-0.3789065
-4.887422	COMPLEXES	-0.1498393
-3.983812	COMPLEXITY	-0.3327771
-5.032494	COMPLI	-0.1498393
-4.386098	COMPLICATE	-0.2512199
-3.651866	COMPLICATED	-0.3858851
-5.032494	COMPLICATING	-0.1498393
-4.887422	COMPLICATION	-0.2684805
-5.032494	COMPLICATIONS	-0.1498393
-4.887422	COMPLIMENTARY	-0.1498393
-5.032494	COMPO	-0.1498393
-5.032494	COMPONEN	-0.1498393
-3.6281	COMPONENT	-0.3736043
-3.366738	COMPONENTS	-0.6135025
-5.032494	COMPONENTS'	-0.1498393
-4.651732	COMPOSE	-0.2420176
-4.887422	COMPOSED	-0.1498393
-5.032494	COMPOSER	-0.1498393
-5.032494	COMPOSES	-0.2684805
-5.032494	COMPOSITE	-0.1498393
-5.032494	COMPREHENSIBLE	-0.1498393
-4.270478	COMPRESS	-0.3153555
-4.795097	COMPRESSED	-0.2252311
-4.887422	COMPRESSES	-0.1498393
-4.887422	COMPRESSING	-0.1498393
-3.934286	COMPRESSION	-0.2542414
-5.032494	COMPRESSIONS	-0.1498393
-5.032494	COMPRISES	-0.1498393
-4.139952	COMPROMISE	-0.3238773
-5.032494	COMPROMISES	-0.1498393
-5.032494	COMPTON	-0.1498393
-5.032494	COMPU	-0.1498393
-5.032494	COMPULSIVELY	-0.1498393
-5.032494	COMPULSORY	-0.1498393
-5.032494	COMPUT	-0.1498393
-4.270478	COMPUTATION	-0.2596394
-4.795097	COMPUTATIONAL	-0.1498393
-4.386098	COMPUTATIONALLY	-0.1766012
-4.544131	COMPUTE	-0.1893331
-5.032494	COMPUTED	-0.1498393
-3.605567	COMPUTER	-0.3296679
-4.887422	COMPUTER'S	-0.1498393
-3.958344	COMPUTERS	-0.2109643
-4.887422	COMPUTERY	-0.1498393
-5.032494	COMPUTES	-0.2684805
-4.324452	COMPUTING	-0.1735449
-3.983812	CON	-0.249877
-4.651732	CONCATENATE	-0.1805626
-5.032494	CONCATENATING	-0.1498393
-5.032494	CONCATENATION	-0.1498393
-4.386098	CONCAVE	-0.1735449
-5.032494	CONCE	-0.1498393
-5.032494	CONCEALED	-0.1498393
-5.032494	CONCEIVABLY	-0.1498393
-5.032494	CONCEIVE	-0.1498393
-4.222477	CONCENTRATE	-0.5645346
-4.887422	CONCENTRATED	-0.1498393
-4.544131	CONCENTRATING	-0.4478772
-5.032494	CONCEP	-0.1498393
-3.594725	CONCEPT	-0.6567366
-5.032494	CONCEPTION	-0.1498393
-5.032494	CONCEPTIONAL	-0.2684805
-3.889833	CONCEPTS	-0.4215761
-3.869204	CONCEPTUAL	-0.8695774
-5.032494	CONCEPTUALIZING	-0.1498393
-4.887422	CONCEPTUALLY	-0.1498393
-4.139952	CONCERN	-0.2006097
-4.039723	CONCERNED	-0.4484197
-4.324452	CONCERNING	-0.3244319
-4.544131	CONCERNS	-0.1498393
-4.887422	CONCERT	-0.1498393
-5.032494	CONCESSIONS	-0.1498393
-5.032494	CONCH	-0.1498393
-5.032494	CONCISE	-0.1498393
-4.651732	CONCLUDE	-0.1498393
-4.887422	CONCLUDED	-0.1498393
-5.032494	CONCLUDES	-0.1498393
-4.222477	CONCLUSION	-0.306436
-4.795097	CONCLUSIONS	-0.2252311
-4.795097	CONCRETE	-0.2420176
-5.032494	CONCRETELY	-0.1498393
-5.032494	CONCURRENT	-0.2684805
-4.887422	CONDENSED	-0.1498393
-4.795097	CONDITION	-0.2252311
-4.887422	CONDITIONAL	-0.1498393
-4.887422	CONDITIONED	-0.2684805
-5.032494	CONDITIONING	-0.1498393
-4.222477	CONDITIONS	-0.2262258
-4.887422	CONDUCIVE	-0.2684805
-4.544131	CONDUCTED	-0.2706813
-5.032494	CONES	-0.1498393
-5.032494	CONFERE	-0.1498393
-3.983812	CONFERENCE	-0.2399995
-5.032494	CONFERENCES	-0.1498393
-4.887422	CONFIDENCE	-0.2684805
-4.457966	CONFIDENT	-0.2371756
-4.887422	CONFIDENTIAL	-0.1498393
-5.032494	CONFIG	-0.1498393
-4.324452	CONFIGURATION	-0.1674961
-5.032494	CONFIGURATIONS	-0.1498393
-4.457966	CONFIGURE	-0.1986195
-4.887422	CONFIGURED	-0.1498393
-5.032494	CONFIGURING	-0.1498393
-5.032494	CONFINE	-0.1498393
-5.032494	CONFINED	-0.1498393
-4.887422	CONFINING	-0.1498393
-4.324452	CONFIRM	-0.2262258
-4.544131	CONFIRMATION	-0.1805626
-5.032494	CONFIRMED	-0.1498393
-4.795097	CONFLICT	-0.1498393
-5.032494	CONFLICTING	-0.1498393
-5.032494	CONFOG	-0.1498393
-4.887422	CONFORM	-0.2684805
-5.032494	CONFORMABLE	-0.1498393
-4.795097	CONFORMS	-0.3214501
-5.032494	CONFRONT	-0.1498393
-5.032494	CONFRONTING	-0.1498393
-4.544131	CONFUSE	-0.1498393
-4.039723	CONFUSED	-0.3729517
-3.934286	CONFUSING	-0.3706883
-4.887422	CONFUSION	-0.3214501
-5.032494	CONFUSIONS	-0.1498393
-5.032494	CONGENIAL	-0.1498393
-5.032494	CONGRATULATE	-0.1498393
-5.032494	CONGRATULATION	-0.1498393
-4.795097	CONGRATULATIONS	-0.2272228
-5.032494	CONJUNCT	-0.1498393
-5.032494	CONJUNCTION	-0.2684805
-5.032494	CONJUNCTURAL	-0.1498393
-4.270478	CONNECT	-0.2784779
-4.070632	CONNECTED	-0.7024866
-4.887422	CONNECTING	-0.1498393
-4.070632	CONNECTION	-0.3578183
-4.270478	CONNECTIONS	-0.2060708
-5.032494	CONNECTIVITY	-0.1498393
-4.887422	CONNECTORS	-0.1498393
-5.032494	CONNECTS	-0.1498393
-4.651732	CONS	-0.1498393
-4.457966	CONSCIOUS	-0.2371756
-4.887422	CONSCIOUSLY	-0.1498393
-4.887422	CONSCIOUSNESS	-0.1498393
-4.795097	CONSECUTIVE	-0.2051211
-5.032494	CONSENSIVE	-0.1498393
-4.222477	CONSENSUS	-0.2275413
-5.032494	CONSENT	-0.1498393
-4.795097	CONSEQUENCES	-0.2051211
-5.032494	CONSERVATIVE	-0.1498393
-5.032494	CONSERVING	-0.1498393
-3.732131	CONSIDER	-0.3932008
-4.887422	CONSIDERABLE	-0.1498393
-4.651732	CONSIDERABLY	-0.2051211
-4.270478	CONSIDERATION	-0.3245816
-4.544131	CONSIDERATIONS	-0.2252311
-4.10391	CONSIDERED	-0.2444401
-3.934286	CONSIDERING	-0.3413501
-4.651732	CONSIST	-0.4478772
-4.795097	CONSISTENCY	-0.1498393
-4.386098	CONSISTENT	-0.2596394
-4.887422	CONSISTENTLY	-0.1498393
-4.887422	CONSISTING	-0.1498393
-4.544131	CONSISTS	-0.586926
-4.795097	CONSOLE	-0.1498393
-4.887422	CONST	-0.1498393
-4.457966	CONSTANT	-0.1498393
-4.179257	CONSTANTLY	-0.1498393
-5.032494	CONSTATIVE	-0.1498393
-5.032494	CONSTITUENT	-0.1498393
-5.032494	CONSTITUTE	-0.1498393
-4.887422	CONSTRAIN	-0.1498393
-4.544131	CONSTRAINED	-0.1498393
-4.222477	CONSTRAINT	-0.2336618
-3.983812	CONSTRAINTS	-0.3191221
-3.76256	CONSTRUCT	-0.3847231
-4.457966	CONSTRUCTED	-0.1498393
-4.887422	CONSTRUCTING	-0.1498393
-4.270478	CONSTRUCTION	-0.1691374
-4.887422	CONSTRUCTIVE	-0.1498393
-4.651732	CONSTRUCTOR	-0.1934874
-4.386098	CONSTRUCTS	-0.2182467
-5.032494	CONSU	-0.1498393
-4.795097	CONSULT	-0.1498393
-5.032494	CONSULTED	-0.1498393
-5.032494	CONSUM	-0.1498393
-4.544131	CONSUME	-0.1498393
-5.032494	CONSUMED	-0.1498393
-4.324452	CONSUMER	-0.1963335
-5.032494	CONSUMERISM	-0.1498393
-4.070632	CONSUMERS	-0.3178375
-5.032494	CONSUMERS'	-0.1498393
-4.795097	CONSUMES	-0.1498393
-4.887422	CONSUMING	-0.2051211
-5.032494	CONSUMPTION	-0.1498393
-4.651732	CONT	-0.1934874
-4.139952	CONTACT	-0.2321621
-5.032494	CONTACTED	-0.1498393
-4.324452	CONTACTS	-0.2265579
-4.324452	CONTAIN	-0.1735449
-4.651732	CONTAINED	-0.1934874
-5.032494	CONTAINER	-0.1498393
-5.032494	CONTAINERS	-0.1498393
-4.270478	CONTAINS	-0.1711152
-4.887422	CONTAMINATION	-0.2684805
-5.032494	CONTATENATE	-0.1498393
-5.032494	CONTEN	-0.1498393
-5.032494	CONTENDERS	-0.1498393
-4.139952	CONTENT	-0.3592302
-4.544131	CONTENTS	-0.2051211
-3.830672	CONTEXT	-0.477019
-4.887422	CONTEXTS	-0.2684805
-4.651732	CONTEXTUAL	-0.6224802
-4.887422	CONTI	-0.1498393
-5.032494	CONTINGENCY	-0.1498393
-4.795097	CONTINUA	-0.2252311
-3.983812	CONTINUE	-0.3452656
-4.651732	CONTINUED	-0.2051211
-4.887422	CONTINUES	-0.1498393
-4.386098	CONTINUING	-0.1498393
-4.324452	CONTINUOUS	-0.2198485
-4.651732	CONTINUOUSLY	-0.4463889
-3.958344	CONTINUUM	-0.4242261
-5.032494	CONTINUUM'S	-0.1498393
-5.032494	CONTORT	-0.1498393
-5.032494	CONTOURED	-0.1498393
-4.887422	CONTR	-0.1498393
-4.887422	CONTRA	-0.1498393
-4.651732	CONTRACT	-0.1498393
-4.887422	CONTRACTS	-0.1498393
-4.887422	CONTRADICTING	-0.1498393
-4.887422	CONTRADICTION	-0.1498393
-5.032494	CONTRADICTIONARY	-0.1498393
-5.032494	CONTRAPTION	-0.1498393
-4.887422	CONTRAPTIONS	-0.1498393
-4.651732	CONTRARY	-0.2445033
-3.958344	CONTRAST	-0.3243898
-5.032494	CONTRASTS	-0.1498393
-4.457966	CONTRIBUTE	-0.3236846
-4.887422	CONTRIBUTED	-0.2252311
-4.887422	CONTRIBUTES	-0.2684805
-4.222477	CONTRIBUTION	-0.2963749
-4.795097	CONTRIBUTIONS	-0.1498393
-5.032494	CONTRIVED	-0.1498393
-4.887422	CONTRO	-0.1498393
-3.241097	CONTROL	-0.8083624
-5.032494	CONTROL'S	-0.1498393
-4.10391	CONTROLLED	-0.3552749
-3.747079	CONTROLLER	-0.4536082
-5.032494	CONTROLLER'S	-0.1498393
-4.651732	CONTROLLERS	-0.1498393
-4.010869	CONTROLLING	-0.2800598
-3.553874	CONTROLS	-0.6508736
-5.032494	CONTSTRUCTS	-0.1498393
-5.032494	CONVE	-0.1498393
-5.032494	CONVENIENCE	-0.1498393
-4.222477	CONVENIENT	-0.306005
-5.032494	CONVENIENTLY	-0.1498393
-4.386098	CONVENTION	-0.2281207
-4.139952	CONVENTIONAL	-0.1784453
-5.032494	CONVENTIONS	-0.1498393
-4.887422	CONVERGE	-0.1498393
-5.032494	CONVERGED	-0.1498393
-5.032494	CONVERGENCE	-0.1498393
-5.032494	CONVERGES	-0.1498393
-4.795097	CONVERGING	-0.1498393
-4.270478	CONVERSATION	-0.2182467
-5.032494	CONVERSATIONAL	-0.1498393
-5.032494	CONVERSATIONS	-0.1498393
-5.032494	CONVERSE	-0.1498393
-4.795097	CONVERSION	-0.1498393
-4.386098	CONVERT	-0.1691374
-5.032494	CONVERTED	-0.1498393
-4.795097	CONVERTER	-0.1498393
-4.795097	CONVERTING	-0.1498393
-4.795097	CONVERTS	-0.1934874
-4.544131	CONVEX	-0.2252311
-5.032494	CONVEY	-0.1498393
-5.032494	CONVINC	-0.1498393
-4.544131	CONVINCE	-0.1934874
-4.457966	CONVINCED	-0.2090693
-5.032494	CONVINCING	-0.1498393
-5.032494	CONVOLUTED	-0.1498393
-5.032494	CONVULSED	-0.1498393
-5.032494	COO	-0.1498393
-5.032494	COOK	-0.1498393
-5.032494	COOKED	-0.1498393
-4.651732	COOKIE	-0.2445033
-3.465939	COOL	-0.8000017
-5.032494	COOLED	-0.1498393
-4.651732	COOLER	-0.1498393
-5.032494	COOLEST	-0.1498393
-5.032494	COOP	-0.1498393
-5.032494	COOPERATING	-0.1498393
-4.887422	COOPERATION	-0.2252311
-5.032494	COORDINATES	-0.1498393
-5.032494	COORDINATING	-0.1498393
-4.887422	COORDINATION	-0.2684805
-4.887422	COP	-0.1498393
-4.795097	COPE	-0.368696
-5.032494	COPED	-0.1498393
-4.651732	COPIED	-0.1859012
-4.544131	COPIES	-0.3906313
-4.386098	COPPER	-0.2065464
-3.71768	COPY	-0.4015025
-4.795097	COPYING	-0.1498393
-4.795097	COPYRIGHT	-0.1498393
-4.651732	COR	-0.1498393
-4.270478	CORD	-0.1893331
-4.651732	CORDLESS	-0.1859013
-4.887422	CORDS	-0.1498393
-4.887422	CORE	-0.2272228
-4.795097	CORINNE	-0.1498393
-4.070632	CORNER	-0.3976823
-5.032494	CORNERING	-0.1498393
-4.324452	CORNERS	-0.2730175
-5.032494	CORNY	-0.1498393
-5.032494	CORP	-0.1498393
-5.032494	CORPORA	-0.1498393
-3.983812	CORPORATE	-0.5526056
-4.795097	CORPORATION	-0.1498393
-5.032494	CORPS	-0.1498393
-3.889833	CORPUS	-0.3528365
-5.032494	CORPUSES	-0.1498393
-3.849511	CORRECT	-0.3917107
-4.795097	CORRECTED	-0.2051211
-4.324452	CORRECTION	-0.2051211
-4.651732	CORRECTIONS	-0.1498393
-4.10391	CORRECTLY	-0.3643748
-5.032494	CORRELATE	-0.1498393
-4.324452	CORRELATED	-0.2701301
-4.324452	CORRELATION	-0.1498393
-4.386098	CORRESPOND	-0.3906313
-5.032494	CORRESPONDENCE	-0.2684805
-4.795097	CORRESPONDING	-0.1498393
-4.887422	CORRESPONDS	-0.2684805
-5.032494	CORRINE	-0.1498393
-5.032494	COS	-0.1498393
-4.222477	COSINE	-0.1838514
-3.213531	COST	-0.5382719
-5.032494	COSTA	-0.1498393
-5.032494	COSTED	-0.1498393
-4.651732	COSTING	-0.1498393
-4.795097	COSTINGS	-0.1498393
-4.222477	COSTLY	-0.3662874
-3.499009	COSTS	-0.511622
-4.222477	COU	-0.2130076
-4.544131	COUCH	-0.2399313
-5.032494	COUCHES	-0.1498393
-2.953451	COULD	-0.8343888
-4.795097	COULD'VE	-0.2029976
-4.544131	COULDA	-0.1859013
-4.887422	COULDN	-0.1498393
-3.869204	COULDN'T	-0.3121729
-5.032494	COULTHARD	-0.1498393
-3.795282	COUNT	-0.3794308
-4.795097	COUNTED	-0.2717859
-4.795097	COUNTER	-0.2717859
-4.887422	COUNTERINTUITIVE	-0.2684805
-4.795097	COUNTERS	-0.4463889
-4.324452	COUNTING	-0.1498393
-4.222477	COUNTRIES	-0.3248061
-4.222477	COUNTRY	-0.2408329
-5.032494	COUNTRYSIDE	-0.1498393
-4.10391	COUNTS	-0.3698903
-3.889833	COUPLE	-0.8583665
-5.032494	COUPLED	-0.1498393
-5.032494	COUR	-0.2252311
-4.887422	COURGETTE	-0.1498393
-4.179257	COURSE	-0.6469284
-5.032494	COURSES	-0.1498393
-5.032494	COURT	-0.1498393
-4.544131	COURTNEY	-0.1498393
-5.032494	COURTNEY'S	-0.1498393
-5.032494	COV	-0.1498393
-4.270478	COVARIANCE	-0.2272228
-5.032494	COVE	-0.1498393
-3.442692	COVER	-0.4392632
-4.795097	COVERAGE	-0.1498393
-3.795282	COVERED	-0.3185011
-4.386098	COVERING	-0.2065464
-5.032494	COVERINGS	-0.1498393
-3.616687	COVERS	-0.3686252
-4.795097	COW	-0.4490716
-5.032494	COWARD'S	-0.1498393
-5.032494	COWBOY	-0.1498393
-4.651732	COWS	-0.2445033
-5.032494	COX	-0.1498393
-5.032494	COYOTE	-0.1498393
-5.032494	COYOTES	-0.1498393
-4.324452	CR	-0.1498393
-4.795097	CRA	-0.1498393
-4.795097	CRACK	-0.2717859
-4.222477	CRADLE	-0.3383227
-4.795097	CRAFT	-0.1498393
-3.934286	CRAIG	-0.2279634
-4.544131	CRAIG'S	-0.1498393
-5.032494	CRAM	-0.1498393
-5.032494	CRANES	-0.1498393
-4.544131	CRANK	-0.1859012
-5.032494	CRANKING	-0.1498393
-4.270478	CRAP	-0.3117485
-4.457966	CRAPPY	-0.3906313
-4.324452	CRASH	-0.1934874
-4.270478	CRASHED	-0.211563
-4.544131	CRASHES	-0.1498393
-5.032494	CRASHING	-0.1498393
-4.887422	CRAWL	-0.1498393
-5.032494	CRAZIEST	-0.1498393
-3.795282	CRAZY	-0.3971058
-4.887422	CREA	-0.1498393
-5.032494	CREAKINESS	-0.1498393
-4.651732	CREAKY	-0.271786
-4.887422	CREAM	-0.1498393
-3.677008	CREATE	-0.4710255
-4.222477	CREATED	-0.2737783
-4.544131	CREATES	-0.2576989
-3.934286	CREATING	-0.4008625
-4.887422	CREATION	-0.2684805
-4.887422	CREATIV	-0.1498393
-3.869204	CREATIVE	-0.2977796
-4.039723	CREATIVITY	-0.4830528
-5.032494	CREATURE	-0.1498393
-5.032494	CREATURES	-0.1498393
-5.032494	CREDIBLE	-0.1498393
-4.544131	CREDIT	-0.1498393
-4.795097	CREDITS	-0.2252311
-4.887422	CREEPING	-0.2684805
-5.032494	CREEPY	-0.1498393
-5.032494	CREW	-0.1498393
-4.887422	CRI	-0.1498393
-5.032494	CRIS	-0.1498393
-5.032494	CRIT	-0.3214501
-4.887422	CRITE	-0.1498393
-3.573819	CRITERIA	-0.4478755
-4.795097	CRITERIAS	-0.2272228
-4.544131	CRITERION	-0.1945971
-4.887422	CRITERIUM	-0.2684805
-5.032494	CRITIC	-0.1498393
-4.139952	CRITICAL	-0.2593442
-4.887422	CRITICALLY	-0.1498393
-4.795097	CRITICISM	-0.1498393
-5.032494	CRITICISMS	-0.1498393
-5.032494	CRITICIZING	-0.1498393
-5.032494	CRITTIN	-0.1498393
-5.032494	CROIX	-0.1498393
-5.032494	CROPPING	-0.1498393
-4.10391	CROSS	-0.2575441
-4.795097	CROSSED	-0.2252311
-5.032494	CROSSES	-0.2684805
-4.887422	CROSSING	-0.1498393
-5.032494	CROTCH	-0.1498393
-4.795097	CROWD	-0.1498393
-4.457966	CROWDED	-0.2065464
-4.324452	CRUCIAL	-0.1998674
-4.887422	CRUDE	-0.2684805
-5.032494	CRUELTY	-0.1498393
-5.032494	CRUX	-0.1498393
-5.032494	CRYING	-0.1498393
-5.032494	CRYPTIC	-0.1498393
-5.032494	CRYSTAL	-0.1498393
-4.544131	CU	-0.1934874
-4.795097	CUBE	-0.2371756
-5.032494	CUCUMBER	-0.1498393
-4.795097	CUDDLY	-0.1498393
-5.032494	CUES	-0.1498393
-5.032494	CUFW	-0.1498393
-5.032494	CULTURAL	-0.1498393
-4.651732	CULTURE	-0.1498393
-5.032494	CULTURES	-0.1498393
-5.032494	CUMBERSOME	-0.1498393
-5.032494	CUMULA	-0.1498393
-5.032494	CUMULATI	-0.1498393
-4.795097	CUMULATIVE	-0.2051211
-4.887422	CUMULATIVELY	-0.1498393
-4.795097	CUP	-0.2994812
-4.651732	CUR	-0.1498392
-5.032494	CURIO	-0.1498393
-4.887422	CURIOSITY	-0.1498393
-4.544131	CURIOUS	-0.2732794
-5.032494	CURLINESS	-0.1498393
-5.032494	CURR	-0.1498393
-3.63982	CURRENT	-0.4010063
-3.812617	CURRENTLY	-0.2019992
-4.795097	CURSOR	-0.2252311
-5.032494	CURSORS	-0.1498393
-5.032494	CURTAIN	-0.1498393
-5.032494	CURVABLE	-0.1498393
-5.032494	CURVACEOUSNESS	-0.1498393
-4.544131	CURVATURE	-0.2265579
-4.887422	CURVATURES	-0.1498393
-3.71768	CURVE	-0.4699777
-3.516538	CURVED	-0.6239073
-3.869204	CURVES	-0.4726896
-5.032494	CURVES'	-0.1498393
-4.887422	CURVINESS	-0.2684805
-5.032494	CURVING	-0.2252311
-5.032494	CURVOUS	-0.1498393
-4.139952	CURVY	-0.272164
-5.032494	CUS	-0.1498392
-4.795097	CUSHION	-0.2152874
-5.032494	CUSHIONING	-0.1498393
-4.795097	CUSHIONS	-0.1934874
-4.887422	CUST	-0.1498393
-4.324452	CUSTOM	-0.2811855
-5.032494	CUSTOMABLE	-0.1498393
-4.139952	CUSTOMER	-0.2390671
-5.032494	CUSTOMER'S	-0.1498393
-3.830672	CUSTOMERS	-0.3555629
-5.032494	CUSTOMERS'	-0.1498393
-4.457966	CUSTOMISABLE	-0.1859012
-5.032494	CUSTOMISATIONS	-0.1498393
-4.651732	CUSTOMISE	-0.2706813
-4.887422	CUSTOMISED	-0.1498393
-5.032494	CUSTOMISING	-0.1498393
-5.032494	CUSTOMIZABLE	-0.1498393
-5.032494	CUSTOMIZED	-0.1498393
-4.887422	CUSTOMIZING	-0.1498393
-3.703696	CUT	-0.4366774
-5.032494	CUTBACKS	-0.1498393
-3.934286	CUTE	-0.4324524
-4.795097	CUTEST	-0.1498393
-4.651732	CUTS	-0.1498393
-3.869204	CUTTING	-0.3554099
-4.651732	CYCLE	-0.2051211
-5.032494	CYCLED	-0.1498393
-5.032494	CYCLES	-0.1498393
-5.032494	CYCLICAL	-0.1498393
-5.032494	CYCLING	-0.1498393
-4.795097	CYGWIN	-0.1498393
-5.032494	CYLINDRICAL	-0.1498393
-5.032494	CZECH	-0.1498393
-3.093693	D	-0.5548446
-5.032494	D'ECOLE	-0.1498393
-3.286035	D.	-0.8975422
-4.10391	DA	-0.3598937
-5.032494	DACHSHUND	-0.1498393
-4.887422	DAD	-0.1498393
-5.032494	DAD'S	-0.1498393
-5.032494	DADA	-0.1498393
-4.887422	DADADA	-0.1498393
-5.032494	DADDY	-0.1498393
-5.032494	DAFT	-0.1498393
-4.887422	DAILY	-0.2684805
-4.651732	DAIMLER	-0.1498393
-5.032494	DALRY	-0.1498393
-4.651732	DAMAGE	-0.1498393
-4.651732	DAMAGED	-0.2445033
-4.887422	DAMAGING	-0.1498393
-4.457966	DAMN	-0.3813566
-4.887422	DAMP	-0.1498393
-3.869204	DAMPED	-1.158317
-5.032494	DAMPERS	-0.1498393
-4.651732	DAMSEL	-0.1498393
-4.795097	DAN	-0.2252311
-4.887422	DANCE	-0.1498393
-5.032494	DANCING	-0.1498393
-5.032494	DANG	-0.1498393
-4.887422	DANGER	-0.1498393
-4.386098	DANGEROUS	-0.2512199
-4.544131	DANIEL	-0.2941696
-4.795097	DANNY	-0.1859013
-4.887422	DARING	-0.1498393
-3.958344	DARK	-0.4391246
-5.032494	DARKENED	-0.1498393
-4.795097	DARKER	-0.1498393
-4.887422	DARKNESS	-0.1498393
-5.032494	DARN	-0.2252311
-4.795097	DARREN	-0.2051211
-5.032494	DARREN'S	-0.1498393
-5.032494	DARWIN	-0.1498393
-4.324452	DASH	-0.3646418
-4.651732	DAT	-0.2051211
-3.159203	DATA	-0.5345396
-4.795097	DATA'S	-0.1498393
-4.039723	DATABASE	-0.2671839
-4.795097	DATABASES	-0.1498393
-4.795097	DATAS	-0.1498393
-4.324452	DATE	-0.2890171
-4.887422	DATED	-0.1498393
-4.887422	DATES	-0.1498393
-4.795097	DAUGHTER	-0.1498393
-5.032494	DAUGHTERS	-0.1498393
-5.032494	DAUNTING	-0.1498393
-3.911491	DAVE	-0.267732
-4.887422	DAVE'S	-0.1498393
-3.934286	DAVID	-0.320333
-5.032494	DAVID'S	-0.1498393
-5.032494	DAWNED	-0.1498393
-3.651866	DAY	-0.4132261
-5.032494	DAY'S	-0.1498393
-5.032494	DAYLIGHT	-0.1498393
-3.911491	DAYS	-0.3530419
-3.889833	DE	-0.1905069
-4.887422	DEACTIVATE	-0.1498393
-5.032494	DEACTIVATES	-0.1498393
-4.270478	DEAD	-0.3085405
-4.270478	DEADLINE	-0.3075431
-4.386098	DEADLINES	-0.2136259
-5.032494	DEADLY	-0.1498393
-4.795097	DEAF	-0.2717859
-4.179257	DEAL	-0.6182512
-5.032494	DEALI	-0.1498393
-4.139952	DEALING	-0.6712194
-4.795097	DEALS	-0.3214501
-4.887422	DEALT	-0.2684805
-4.795097	DEAR	-0.5282528
-5.032494	DEATH	-0.1498393
-5.032494	DEB	-0.1498393
-4.795097	DEBATE	-0.1498393
-4.887422	DEBATING	-0.1498393
-5.032494	DEBENHAM'S	-0.1498393
-5.032494	DEBIAN	-0.1498393
-5.032494	DEBUG	-0.1498393
-5.032494	DEBUGGING	-0.1498393
-5.032494	DEBUSK	-0.1498393
-4.544131	DEC	-0.1934874
-5.032494	DECADE	-0.1498393
-4.457966	DECEMBER	-0.2371756
-4.270478	DECENT	-0.1813316
-4.795097	DECI	-0.2252311
-3.605567	DECIDE	-0.5891577
-3.594725	DECIDED	-0.6556727
-4.887422	DECIDES	-0.1498393
-4.010869	DECIDING	-0.2034013
-5.032494	DECIMAL	-0.1498392
-5.032494	DECIS	-0.1498393
-5.032494	DECISI	-0.1498393
-3.553874	DECISION	-0.5282992
-3.651866	DECISIONS	-0.5111213
-4.795097	DECISIVE	-0.1498393
-5.032494	DECLARE	-0.1498393
-5.032494	DECLARED	-0.1498393
-4.887422	DECLINE	-0.1498393
-4.887422	DECODE	-0.1498393
-4.887422	DECODED	-0.2684805
-4.457966	DECODER	-0.1934874
-4.386098	DECODING	-0.2963749
-5.032494	DECOMPOSE	-0.1498393
-4.651732	DECOMPOSITION	-0.1498393
-5.032494	DECONSTRUCTED	-0.1498393
-4.651732	DECOR	-0.1498393
-5.032494	DECORATION	-0.1498393
-5.032494	DECORATIVE	-0.1498393
-4.887422	DECORRELATE	-0.2684805
-4.651732	DECORRELATION	-0.1498393
-5.032494	DECORRELATIONS	-0.1498393
-4.324452	DECREASE	-0.2493515
-4.887422	DECREASES	-0.1498393
-5.032494	DECREASING	-0.1498393
-5.032494	DEDICATE	-0.1498393
-4.544131	DEDICATED	-0.1934874
-4.457966	DEEP	-0.1735449
-4.457966	DEEPER	-0.1859012
-5.032494	DEER	-0.1498393
-5.032494	DEF	-0.1498393
-4.386098	DEFAULT	-0.1859012
-4.795097	DEFEAT	-0.1498393
-4.887422	DEFEATED	-0.1498393
-5.032494	DEFEATS	-0.1498393
-4.887422	DEFEND	-0.1498393
-5.032494	DEFENDED	-0.1498393
-4.887422	DEFENDING	-0.1498393
-4.795097	DEFI	-0.1498393
-4.887422	DEFIN	-0.1498393
-5.032494	DEFINABLE	-0.1498393
-3.849511	DEFINE	-0.3330132
-3.778613	DEFINED	-0.311408
-4.795097	DEFINES	-0.1498393
-4.457966	DEFINING	-0.1859013
-4.887422	DEFINIT	-0.1498393
-4.10391	DEFINITE	-0.1615303
-3.336165	DEFINITELY	-0.4385324
-4.139952	DEFINITION	-0.4476062
-5.032494	DEFINITIONAL	-0.1498393
-4.887422	DEFINITIONS	-0.2445033
-5.032494	DEFINITIVE	-0.1498393
-5.032494	DEFORMED	-0.1498393
-5.032494	DEGRADATION	-0.1498393
-5.032494	DEGRADE	-0.1498393
-3.983812	DEGREE	-0.1844977
-4.324452	DEGREES	-0.2549967
-4.887422	DEL	-0.2684805
-5.032494	DELAMBEAUX	-0.1498393
-4.10391	DELAY	-0.2962246
-4.887422	DELAYED	-0.1498393
-5.032494	DELE	-0.1498393
-5.032494	DELEGATE	-0.1498393
-5.032494	DELEGATION	-0.1498393
-4.039723	DELETE	-0.2784177
-4.544131	DELETED	-0.1498393
-4.457966	DELIBERATELY	-0.1498393
-4.795097	DELICATE	-0.1498393
-5.032494	DELICATELY	-0.1498393
-5.032494	DELICIOUS	-0.2684805
-5.032494	DELILAH'S	-0.1498393
-4.887422	DELIMITERS	-0.1498393
-4.139952	DELIVER	-0.2208527
-5.032494	DELIVERABLES	-0.1498393
-4.795097	DELIVERED	-0.1498393
-5.032494	DELIVERY	-0.1498393
-4.887422	DELTA	-0.2684805
-4.651732	DELTAS	-0.1498393
-4.795097	DELUXE	-0.2512199
-5.032494	DEM	-0.1498393
-4.222477	DEMAND	-0.3595682
-4.887422	DEMANDING	-0.1498393
-4.795097	DEMANDS	-0.368696
-4.139952	DEMO	-0.272532
-4.795097	DEMOCRATIC	-0.2252311
-5.032494	DEMOCRATICALLY	-0.1498393
-5.032494	DEMOG	-0.1498393
-4.10391	DEMOGRAPHIC	-0.3855656
-5.032494	DEMOGRAPHIC'S	-0.1498393
-5.032494	DEMOGRAPHICALLY	-0.1498393
-4.651732	DEMOGRAPHICS	-0.1498393
-5.032494	DEMOKRAPHI	-0.1498393
-5.032494	DEMOLISHING	-0.1498393
-4.651732	DEMONSTRATE	-0.1766012
-5.032494	DEMONSTRATES	-0.1498393
-5.032494	DEMONSTRATION	-0.1498393
-4.887422	DEMONSTRATIONS	-0.1498393
-5.032494	DEMONSTRATOR	-0.1498393
-4.795097	DEMOS	-0.1498393
-5.032494	DEMOTIVATING	-0.1498393
-5.032494	DENNI	-0.1498393
-5.032494	DENOMINATOR	-0.1498393
-5.032494	DENSITIES	-0.1498393
-4.544131	DENSITY	-0.2182579
-4.795097	DEP	-0.3214501
-5.032494	DEPART	-0.1498393
-3.732131	DEPARTMENT	-0.3812989
-4.887422	DEPARTMENT'S	-0.1498393
-4.651732	DEPARTMENTS	-0.1498393
-5.032494	DEPE	-0.1498393
-4.887422	DEPEN	-0.1498393
-4.139952	DEPEND	-0.5027643
-5.032494	DEPENDABILITY	-0.1498393
-4.795097	DEPENDABLE	-0.1498393
-4.887422	DEPENDANT	-0.2684805
-5.032494	DEPENDENCY	-0.1498393
-4.039723	DEPENDENT	-0.3363541
-5.032494	DEPENDI	-0.1498393
-3.6281	DEPENDING	-0.908496
-3.795282	DEPENDS	-0.7106085
-5.032494	DEPRESS	-0.1498393
-5.032494	DEPRESSION	-0.2051211
-4.457966	DEPTH	-0.2732794
-5.032494	DER	-0.1498392
-5.032494	DERAIL	-0.1498393
-5.032494	DERE	-0.1498393
-5.032494	DEREK	-0.1498393
-4.795097	DERIVE	-0.1498393
-4.270478	DERIVED	-0.2846513
-4.887422	DERIVING	-0.1498393
-4.139952	DES	-0.1859013
-5.032494	DESAIL	-0.1498393
-5.032494	DESC	-0.1498393
-5.032494	DESCRI	-0.1498393
-4.270478	DESCRIBE	-0.2863021
-4.270478	DESCRIBED	-0.1498393
-4.887422	DESCRIBES	-0.1498393
-4.139952	DESCRIBING	-0.272781
-5.032494	DESCRIPT	-0.1498393
-4.386098	DESCRIPTION	-0.2576989
-4.544131	DESCRIPTIONS	-0.2420176
-5.032494	DESCRIPTIVE	-0.1498393
-4.795097	DESERT	-0.2252311
-5.032494	DESERVE	-0.1498393
-4.887422	DESERVES	-0.2684805
-4.270478	DESI	-0.1498393
-2.83254	DESIGN	-0.7561283
-4.887422	DESIGN'S	-0.1498393
-3.76256	DESIGNED	-0.4216766
-3.778613	DESIGNER	-0.5179884
-4.270478	DESIGNERS	-0.2125612
-3.690147	DESIGNING	-0.4482951
-3.664255	DESIGNS	-0.4488242
-5.032494	DESIGNY	-0.1498393
-4.887422	DESIRABLE	-0.1498393
-4.386098	DESIRE	-0.2732794
-4.795097	DESIRED	-0.1498393
-4.544131	DESIRES	-0.3034564
-4.544131	DESK	-0.2941696
-4.795097	DESKS	-0.1934874
-4.887422	DESKT	-0.1498393
-4.270478	DESKTOP	-0.3869182
-5.032494	DESKTOP'S	-0.1498393
-5.032494	DESPITE	-0.2684805
-4.887422	DESTROY	-0.1498393
-4.887422	DESTROYING	-0.1498393
-5.032494	DESTRUCT	-0.1498393
-5.032494	DESTRUCTIBLE	-0.1498393
-5.032494	DETACHABLE	-0.1498393
-4.139952	DETAIL	-0.3753975
-3.958344	DETAILED	-0.7052796
-4.887422	DETAILING	-0.1498393
-3.911491	DETAILS	-0.4597954
-4.10391	DETECT	-0.3141803
-4.179257	DETECTED	-0.310117
-4.179257	DETECTING	-0.1903322
-3.983812	DETECTION	-0.4494994
-4.887422	DETECTIONS	-0.1934874
-4.457966	DETECTOR	-0.217075
-5.032494	DETECTS	-0.1498393
-5.032494	DETER	-0.1498393
-4.222477	DETERMINE	-0.3250307
-4.887422	DETERMINED	-0.1498393
-5.032494	DETERMINES	-0.1498393
-5.032494	DETERMINING	-0.1498393
-5.032494	DETERMINIST	-0.1498393
-5.032494	DETRACT	-0.1498393
-4.887422	DEV	-0.1498393
-5.032494	DEVALUATION	-0.1498393
-5.032494	DEVE	-0.1498393
-5.032494	DEVEL	-0.1498393
-4.222477	DEVELOP	-0.374535
-3.869204	DEVELOPED	-0.2475506
-4.887422	DEVELOPER	-0.1498393
-5.032494	DEVELOPERS	-0.1498393
-4.039723	DEVELOPING	-0.2540554
-3.911491	DEVELOPMENT	-0.2337984
-4.651732	DEVELOPMENTS	-0.2252311
-4.457966	DEVI	-0.1498393
-4.795097	DEVIATION	-0.1805626
-5.032494	DEVIATIONS	-0.1498393
-5.032494	DEVIC	-0.1498393
-3.241097	DEVICE	-0.6158217
-5.032494	DEVICE'S	-0.1498393
-3.534805	DEVICES	-0.4338638
-4.887422	DEVISE	-0.1498393
-4.795097	DEVISED	-0.1498393
-5.032494	DEVISION	-0.1498393
-4.887422	DEVOTE	-0.1498393
-3.934286	DI	-0.2735562
-4.795097	DIAGONAL	-0.1859013
-4.887422	DIAGONALS	-0.1498393
-5.032494	DIAGRA	-0.1498393
-4.651732	DIAGRAM	-0.1498393
-5.032494	DIAGRAMS	-0.1498393
-4.270478	DIAL	-0.2845859
-4.887422	DIALECTS	-0.1498393
-5.032494	DIALERS	-0.1498393
-4.887422	DIALLING	-0.1498393
-3.594725	DIALOGUE	-0.5735686
-4.222477	DIALOGUES	-0.2014771
-5.032494	DIALS	-0.1498393
-5.032494	DIARY	-0.1498393
-5.032494	DIBULAE	-0.1498393
-5.032494	DIC	-0.1498393
-4.222477	DICE	-0.4172509
-5.032494	DICIER	-0.1498393
-4.795097	DICTATE	-0.1498393
-4.651732	DICTATED	-0.2051211
-5.032494	DICTATES	-0.1498393
-5.032494	DICTATING	-0.1498393
-4.795097	DICTATION	-0.1498393
-4.795097	DICTIONARIES	-0.2252311
-4.222477	DICTIONARY	-0.2785203
-5.032494	DICTIONARY'S	-0.1498393
-3.151416	DID	-0.7485037
-5.032494	DIDN	-0.1498393
-3.373119	DIDN'T	-0.5581999
-5.032494	DIDS	-0.1498393
-4.386098	DIE	-0.1805626
-4.457966	DIED	-0.1498393
-5.032494	DIEGO	-0.1859012
-4.887422	DIES	-0.1498393
-4.222477	DIF	-0.1498393
-4.386098	DIFF	-0.1805626
-5.032494	DIFFE	-0.1498393
-4.651732	DIFFER	-0.2051211
-5.032494	DIFFERE	-0.1498393
-5.032494	DIFFERED	-0.1498393
-4.887422	DIFFEREN	-0.1498393
-3.664255	DIFFERENCE	-0.6378302
-4.324452	DIFFERENCES	-0.1859013
-2.943775	DIFFERENT	-0.5025994
-5.032494	DIFFERENTIATE	-0.1498393
-5.032494	DIFFERENTIATION	-0.1498393
-4.179257	DIFFERENTLY	-0.4493707
-5.032494	DIFFERENTNESS	-0.1498393
-5.032494	DIFFERING	-0.1498393
-4.887422	DIFFERS	-0.1498393
-4.795097	DIFFI	-0.1498393
-5.032494	DIFFIC	-0.1498393
-5.032494	DIFFICU	-0.1498393
-3.63982	DIFFICULT	-0.6601614
-4.887422	DIFFICULTIES	-0.2051211
-4.457966	DIFFICULTY	-0.1934874
-4.651732	DIFFUSE	-0.2051211
-4.544131	DIG	-0.2252311
-5.032494	DIGESTING	-0.1498393
-5.032494	DIGI	-0.1498393
-5.032494	DIGINIO	-0.1498393
-4.270478	DIGIT	-0.2208527
-3.747079	DIGITAL	-0.4486422
-5.032494	DIGITISE	-0.1498393
-5.032494	DIGITISING	-0.1498393
-4.887422	DIGITIZED	-0.1498393
-3.983812	DIGITS	-0.3724248
-4.795097	DIL	-0.1934874
-4.887422	DILEMMA	-0.2051211
-5.032494	DILIGENTLY	-0.1498393
-4.324452	DIMENSION	-0.3701894
-4.795097	DIMENSIONAL	-0.1998673
-4.457966	DIMENSIONS	-0.3701894
-4.795097	DING	-0.1498393
-5.032494	DINGE	-0.1498393
-5.032494	DINGS	-0.1498393
-4.795097	DINGY	-0.1498393
-4.651732	DINNER	-0.1498393
-5.032494	DINOS	-0.1498393
-4.887422	DINOSAUR	-0.2717859
-4.544131	DIODE	-0.1986195
-4.544131	DIODES	-0.1934874
-4.887422	DIP	-0.1498393
-4.544131	DIPHONE	-0.1859012
-4.795097	DIPHONES	-0.1498393
-4.887422	DIPLOMA	-0.2684805
-4.887422	DIPS	-0.1498393
-5.032494	DIR	-0.1498393
-4.887422	DIRE	-0.1498393
-3.958344	DIRECT	-0.2728565
-5.032494	DIRECTED	-0.1498393
-5.032494	DIRECTING	-0.2684805
-3.690147	DIRECTION	-0.4868556
-4.457966	DIRECTIONAL	-0.1766012
-4.457966	DIRECTIONS	-0.4475146
-4.887422	DIRECTIVE	-0.2252311
-5.032494	DIRECTIVES	-0.1498393
-3.507685	DIRECTLY	-0.3388797
-5.032494	DIRECTOR	-0.1498393
-5.032494	DIRECTORIES	-0.1498393
-5.032494	DIRECTORS	-0.1498393
-3.830672	DIRECTORY	-0.4475873
-5.032494	DIRECTS	-0.1498393
-5.032494	DIRECTUR	-0.1498393
-4.795097	DIRICHLET	-0.1498393
-4.887422	DIRK	-0.1498393
-5.032494	DIRTY	-0.1498393
-4.039723	DIS	-0.1880147
-5.032494	DISABILITY	-0.1498393
-4.651732	DISABLE	-0.1498393
-4.651732	DISABLED	-0.2051211
-5.032494	DISABLES	-0.1498393
-5.032494	DISABLING	-0.1498393
-5.032494	DISACTIVATE	-0.1498393
-5.032494	DISADVANT	-0.1498393
-4.651732	DISADVANTAGE	-0.1859013
-4.544131	DISADVANTAGES	-0.1498393
-4.457966	DISAGREE	-0.3754783
-4.887422	DISAGREED	-0.1498393
-4.386098	DISAGREEMENT	-0.1986195
-5.032494	DISAGREEMENTS	-0.1498393
-5.032494	DISAGREES	-0.1498393
-4.795097	DISAPPEAR	-0.1498393
-5.032494	DISAPPEARED	-0.1498393
-4.887422	DISAPPEARING	-0.1498393
-5.032494	DISAPPEARS	-0.1498393
-4.795097	DISAPPOINTED	-0.1498393
-4.887422	DISASTER	-0.1498393
-5.032494	DISBELIEF	-0.1498393
-4.795097	DISC	-0.1498393
-5.032494	DISCARD	-0.1498393
-5.032494	DISCARDED	-0.1498393
-5.032494	DISCMANS	-0.1498393
-4.795097	DISCO	-0.1498393
-5.032494	DISCOMMUNICATE	-0.1498393
-5.032494	DISCONCERTING	-0.1498393
-4.651732	DISCONNECT	-0.2445033
-5.032494	DISCONNECTED	-0.1498393
-5.032494	DISCONTINUITIES	-0.1498393
-4.887422	DISCONTINUITY	-0.2252311
-5.032494	DISCONTINUOUS	-0.1498393
-4.651732	DISCOUNT	-0.1498393
-5.032494	DISCOUNTED	-0.1498393
-5.032494	DISCOUNTING	-0.1498393
-5.032494	DISCOUNTS	-0.1498393
-5.032494	DISCOURAGE	-0.1498393
-5.032494	DISCOURAGING	-0.1498393
-4.139952	DISCOURSE	-0.2946476
-4.270478	DISCOVER	-0.1813316
-4.386098	DISCOVERED	-0.1998673
-5.032494	DISCOVERIES	-0.1498393
-4.887422	DISCOVERY	-0.1498393
-5.032494	DISCREET	-0.1498393
-4.651732	DISCRETE	-0.1498393
-5.032494	DISCRIMINATE	-0.1498393
-5.032494	DISCRIMINATION	-0.1498393
-4.795097	DISCS	-0.1498393
-5.032494	DISCUS	-0.1498393
-3.544235	DISCUSS	-0.639015
-3.830672	DISCUSSED	-0.4145397
-3.934286	DISCUSSING	-0.2631955
-3.616687	DISCUSSION	-0.4793339
-4.179257	DISCUSSIONS	-0.1784453
-5.032494	DISEASE	-0.1498393
-5.032494	DISEMPOWERING	-0.1498393
-4.887422	DISFLUENCIES	-0.2684805
-5.032494	DISJOINT	-0.1498393
-5.032494	DISJOINTED	-0.1498393
-4.270478	DISK	-0.2780649
-5.032494	DISKE	-0.1498393
-4.795097	DISKS	-0.1498393
-4.386098	DISLIKE	-0.2883282
-5.032494	DISLIKED	-0.2684805
-5.032494	DISLIKING	-0.1498393
-5.032494	DISLIKINGS	-0.1498393
-4.887422	DISMISSED	-0.2684805
-5.032494	DISNEY	-0.1498393
-4.795097	DISP	-0.1498393
-5.032494	DISPATCH	-0.1498393
-5.032494	DISPATCHING	-0.1498393
-5.032494	DISPENSE	-0.2684805
-4.887422	DISPERSED	-0.1498393
-5.032494	DISPL	-0.1498393
-5.032494	DISPLACE	-0.1498393
-3.302111	DISPLAY	-0.5680905
-4.887422	DISPLAY'S	-0.1498393
-3.849511	DISPLAYED	-0.4033141
-3.958344	DISPLAYING	-0.233274
-3.889833	DISPLAYS	-0.2463051
-5.032494	DISPLY	-0.1498393
-4.457966	DISPOSABLE	-0.1998673
-4.887422	DISPOSAL	-0.1498393
-5.032494	DISPOSE	-0.2684805
-5.032494	DISPOSITION	-0.1498393
-5.032494	DISPRA	-0.1498393
-5.032494	DISPUTE	-0.1498393
-5.032494	DISREGARD	-0.1498393
-5.032494	DISRESPECT	-0.1498393
-5.032494	DISRUPT	-0.1498393
-5.032494	DISRUPTION	-0.1498393
-5.032494	DISS	-0.1498393
-5.032494	DISSATISFIED	-0.1498393
-5.032494	DISSATISFY	-0.1498393
-5.032494	DISSECTED	-0.1498393
-4.887422	DISSERTATION	-0.1498393
-5.032494	DISSIMILAR	-0.1498393
-5.032494	DISSING	-0.1498393
-5.032494	DISSOLUTION	-0.1498393
-4.651732	DISSOLVE	-0.1735449
-4.887422	DISSOLVES	-0.2252311
-5.032494	DISSU	-0.1498393
-4.887422	DIST	-0.1498393
-4.070632	DISTANCE	-0.3890989
-4.651732	DISTANCES	-0.1498393
-4.795097	DISTANT	-0.2051211
-4.324452	DISTINCT	-0.1945971
-4.457966	DISTINCTION	-0.2732794
-4.887422	DISTINCTIONS	-0.1498393
-4.457966	DISTINCTIVE	-0.1859013
-5.032494	DISTING	-0.1498393
-4.457966	DISTINGUISH	-0.2371757
-5.032494	DISTINGUISHED	-0.1498393
-5.032494	DISTINGUISHING	-0.1498393
-5.032494	DISTORTION	-0.1498393
-5.032494	DISTRACTED	-0.1498393
-4.795097	DISTRACTING	-0.2252311
-4.795097	DISTRACTION	-0.1498393
-5.032494	DISTRESS	-0.1498393
-4.887422	DISTRIBUTE	-0.2684805
-4.795097	DISTRIBUTED	-0.1498393
-5.032494	DISTRIBUTING	-0.1498393
-3.934286	DISTRIBUTION	-0.3378744
-4.795097	DISTRIBUTIONS	-0.1934874
-4.887422	DISTRIBUTOR	-0.1498393
-5.032494	DISTRICT	-0.1498393
-4.887422	DISTURB	-0.1498393
-4.651732	DISTURBED	-0.2051211
-5.032494	DISTURBING	-0.1498393
-4.651732	DITCH	-0.2051211
-4.887422	DITCHING	-0.1498393
-5.032494	DITTO	-0.1498393
-4.887422	DIV	-0.1498393
-4.651732	DIVA	-0.368696
-4.887422	DIVE	-0.1498393
-4.887422	DIVERSE	-0.1498393
-4.795097	DIVERSION	-0.1498393
-5.032494	DIVERSITY	-0.1498393
-5.032494	DIVERTING	-0.1498393
-4.179257	DIVIDE	-0.2876404
-4.010869	DIVIDED	-0.6860963
-5.032494	DIVIDES	-0.1498393
-4.544131	DIVIDING	-0.1934874
-4.457966	DIVISION	-0.25557
-5.032494	DIVISIONS	-0.1498393
-4.544131	DIVX	-0.1934874
-5.032494	DL	-0.1498393
-2.678318	DO	-1.129111
-4.386098	DOABLE	-0.3906313
-4.795097	DOC	-0.1498393
-5.032494	DOCH	-0.1498393
-4.544131	DOCK	-0.1498393
-4.324452	DOCKING	-1.051644
-4.795097	DOCTOR	-0.1498392
-5.032494	DOCUMEN	-0.1498393
-3.594725	DOCUMENT	-0.4612635
-5.032494	DOCUMENT'S	-0.1498393
-4.887422	DOCUMENTARY	-0.1498393
-4.222477	DOCUMENTATION	-0.2328753
-4.795097	DOCUMENTED	-0.1498393
-5.032494	DOCUMENTING	-0.1498393
-3.76256	DOCUMENTS	-0.5341202
-4.887422	DODGY	-0.1498393
-5.032494	DODO	-0.1498393
-4.887422	DOE	-0.1934874
-3.077122	DOES	-0.7465037
-3.077122	DOESN'T	-0.6911359
-4.139952	DOG	-0.515209
-4.386098	DOGS	-0.2198485
-4.651732	DOH	-0.3506156
-5.032494	DOH'S	-0.1498393
-5.032494	DOHS	-0.1498393
-5.032494	DOI	-0.1498393
-3.187609	DOING	-0.6271163
-5.032494	DOKEY	-0.1498393
-4.887422	DOLBY	-0.1498393
-4.544131	DOLLAR	-0.1934874
-4.795097	DOLLARS	-0.1498393
-4.457966	DOLPHIN	-0.3340856
-4.651732	DOM	-0.1498393
-3.889833	DOMAIN	-0.3195537
-4.651732	DOMINANT	-0.1498392
-5.032494	DOMINATED	-0.1498393
-5.032494	DOMMAGE	-0.1498393
-4.270478	DON	-0.3428569
-4.887422	DON'	-0.1498393
-3.054936	DON'T	-1.13622
-5.032494	DON'TS	-0.1498393
-3.270534	DONE	-0.5965171
-5.032494	DONER	-0.1498393
-5.032494	DONG	-0.1498393
-5.032494	DONGLE	-0.1498393
-5.032494	DONKEY	-0.1498393
-5.032494	DOODAH	-0.1498393
-4.651732	DOODLE	-0.1498393
-5.032494	DOODLED	-0.1498393
-5.032494	DOODLES	-0.1498393
-4.887422	DOODLING	-0.1498393
-5.032494	DOOM	-0.1498393
-4.324452	DOOR	-0.1893331
-5.032494	DOOR'S	-0.1498393
-4.795097	DOORS	-0.1498393
-5.032494	DORMANT	-0.1498393
-3.911491	DOT	-0.169614
-4.544131	DOTS	-0.1934874
-4.795097	DOUB	-0.2252311
-3.354249	DOUBLE	-0.7721213
-4.887422	DOUBLED	-0.2684805
-4.651732	DOUBLES	-0.2051211
-4.386098	DOUBLY	-0.2883282
-4.651732	DOUBT	-0.2060708
-5.032494	DOUBTFUL	-0.1498393
-4.795097	DOUBTING	-0.2051211
-4.651732	DOUGH	-0.368696
-5.032494	DOUGLAS	-0.1498393
-4.795097	DOW	-0.1498393
-2.927346	DOWN	-0.7172701
-4.222477	DOWNLOAD	-0.2804667
-4.795097	DOWNLOADED	-0.1498393
-4.795097	DOWNLOADING	-0.1498393
-5.032494	DOWNLOADS	-0.1498393
-5.032494	DOWNS	-0.2684805
-4.887422	DOWNSAMPLING	-0.1498393
-4.887422	DOWNSTAIRS	-0.1498393
-4.795097	DOWNWARD	-0.1498393
-4.887422	DOZEN	-0.1934874
-5.032494	DOZENS	-0.1498393
-4.651732	DR	-0.1498393
-4.887422	DRA	-0.2684805
-5.032494	DRAF	-0.1498393
-4.544131	DRAFT	-0.1934874
-4.457966	DRAG	-0.2252311
-5.032494	DRAGON	-0.1498393
-5.032494	DRAINING	-0.1498393
-5.032494	DRAPE	-0.1498393
-4.887422	DRASTIC	-0.1498393
-5.032494	DRATS	-0.1498393
-3.482159	DRAW	-0.5856169
-5.032494	DRAWABLE	-0.1498393
-5.032494	DRAWBACK	-0.1498393
-4.324452	DRAWER	-0.2870175
-3.6281	DRAWING	-0.3985238
-4.324452	DRAWINGS	-0.3428063
-3.983812	DRAWN	-0.1735449
-4.795097	DRAWS	-0.2252311
-5.032494	DRE	-0.1498393
-5.032494	DREADFUL	-0.1498393
-4.887422	DREAM	-0.1498393
-5.032494	DREAMING	-0.1498393
-4.887422	DREAMS	-0.1498393
-5.032494	DRESS	-0.1498393
-5.032494	DRESSED	-0.1498393
-4.457966	DREW	-0.1772679
-5.032494	DRI	-0.1498393
-5.032494	DRIED	-0.1498393
-4.795097	DRIFT	-0.1498393
-5.032494	DRINK	-0.1498393
-4.887422	DRINKS	-0.1498393
-5.032494	DRIPPER	-0.1498393
-4.222477	DRIVE	-0.2281207
-4.324452	DRIVEN	-0.2065464
-5.032494	DRIVES	-0.1498393
-5.032494	DRIVING	-0.1498393
-5.032494	DROOP	-0.1498393
-3.747079	DROP	-0.525396
-4.324452	DROPPED	-0.2883282
-4.887422	DROPPING	-0.1859013
-4.795097	DROPS	-0.1498393
-5.032494	DROWN	-0.1498393
-5.032494	DRUNK	-0.1498393
-5.032494	DRY	-0.1498393
-4.887422	DU	-0.1498393
-4.386098	DUAL	-0.2252311
-5.032494	DUBBED	-0.1498393
-4.887422	DUCK	-0.3092119
-5.032494	DUDE	-0.1498393
-4.139952	DUE	-0.5630149
-5.032494	DUES	-0.1498393
-5.032494	DUFF	-0.1498393
-5.032494	DUGUID	-0.1498393
-4.887422	DUH	-0.3786624
-4.386098	DULL	-0.3701894
-4.887422	DUMB	-0.1498393
-5.032494	DUMBER	-0.1498393
-5.032494	DUMBEST	-0.1498393
-5.032494	DUMMY	-0.1498393
-4.039723	DUMP	-0.3614521
-4.544131	DUMPED	-0.2445033
-4.651732	DUMPING	-0.2717859
-5.032494	DUMPS	-0.1498393
-5.032494	DUN	-0.1498393
-4.386098	DUNNO	-0.7492191
-5.032494	DUPLICATING	-0.1498393
-4.887422	DUPLICATION	-0.2252311
-5.032494	DUR	-0.1498393
-5.032494	DURA	-0.1498393
-4.651732	DURABILITY	-0.1498393
-4.179257	DURABLE	-0.3194629
-4.179257	DURATION	-0.2818989
-4.795097	DURATIONS	-0.2051211
-5.032494	DURHAM	-0.1498393
-3.499009	DURING	-0.5436867
-5.032494	DUST	-0.1498393
-5.032494	DUT	-0.1498393
-4.324452	DUTCH	-0.1838514
-5.032494	DUTY	-0.1498393
-4.457966	DWARF	-0.3214501
-4.887422	DWARFS	-0.1498393
-5.032494	DWIGHT	-0.1498393
-4.887422	DYING	-0.1498393
-5.032494	DYN	-0.1498393
-5.032494	DYNA	-0.1498393
-4.010869	DYNAMIC	-0.2408329
-4.270478	DYNAMICALLY	-0.2456248
-5.032494	DYNAMITE	-0.1498393
-4.139952	DYNAMO	-0.3879972
-4.795097	DYNAMOS	-0.2051211
-3.458051	E	-0.30337
-3.690147	E.	-0.5416729
-4.386098	EA	-0.1986195
-3.100502	EACH	-0.5840622
-5.032494	EAGER	-0.1498393
-5.032494	EAH	-0.1498393
-4.457966	EAR	-0.1498393
-4.795097	EARL	-0.1498393
-5.032494	EARLI	-0.1498393
-3.594725	EARLIER	-0.3705917
-5.032494	EARLIEST	-0.1498393
-3.889833	EARLY	-0.2310956
-5.032494	EARNED	-0.1498393
-4.544131	EARS	-0.4033141
-4.795097	EARTH	-0.1498393
-5.032494	EARTHQUAKE	-0.1498393
-4.651732	EAS	-0.1498393
-3.812617	EASE	-0.9267057
-3.63982	EASIER	-0.7249318
-4.270478	EASIEST	-0.4337004
-3.482159	EASILY	-0.3579629
-5.032494	EASINESS	-0.1498393
-4.457966	EAST	-0.2152875
-4.651732	EASTER	-0.1498393
-4.887422	EASTERN	-0.2684805
-5.032494	EASTPACK	-0.1498393
-3.200377	EASY	-0.8688442
-4.270478	EAT	-0.3178375
-5.032494	EATABLE	-0.1498393
-4.887422	EATEN	-0.1498393
-4.544131	EATING	-0.1498393
-4.651732	EBENEZER	-0.2941696
-5.032494	EBENEZER'S	-0.1498393
-4.795097	EC	-0.1498393
-5.032494	ECHELONS	-0.1498393
-5.032494	ECHO	-0.1498393
-5.032494	ECLIPSING	-0.1498393
-4.795097	ECO	-0.2252311
-5.032494	ECOL	-0.1498393
-5.032494	ECOLOGICAL	-0.1498393
-5.032494	ECOLOGISTS	-0.1498393
-5.032494	ECOLOGY	-0.1498393
-4.795097	ECONOMIC	-0.1498393
-5.032494	ECONOMICAL	-0.1498393
-5.032494	ECONOMICALLY	-0.1498393
-5.032494	ECONOMICS	-0.1498393
-4.457966	ED	-0.4115821
-5.032494	EDAS	-0.1498393
-4.386098	EDGE	-0.2941696
-4.544131	EDGES	-0.2619849
-5.032494	EDGING	-0.1498393
-5.032494	EDGY	-0.1498393
-5.032494	EDI	-0.1498393
-4.324452	EDIBLE	-0.2723154
-4.457966	EDINBURGH	-0.1945971
-4.544131	EDIT	-0.1498393
-5.032494	EDITED	-0.1498393
-5.032494	EDITI	-0.1498393
-4.887422	EDITING	-0.2252311
-4.544131	EDITION	-0.2576989
-5.032494	EDITIONS	-0.1498393
-4.887422	EDITOR	-0.1498393
-5.032494	EDUCATED	-0.1498393
-5.032494	EEK	-0.1498393
-5.032494	EEYORE	-0.1498393
-4.795097	EF	-0.1498393
-5.032494	EFFEC	-0.1498393
-3.889833	EFFECT	-0.3715901
-5.032494	EFFECTI	-0.1498393
-4.386098	EFFECTIVE	-0.2950675
-3.911491	EFFECTIVELY	-0.1834347
-5.032494	EFFECTIVENESS	-0.1498393
-4.324452	EFFECTS	-0.1986195
-5.032494	EFFICACY	-0.1498393
-5.032494	EFFICIENCY	-0.1498393
-4.386098	EFFICIENT	-0.2609879
-4.795097	EFFICIENTLY	-0.1498393
-4.10391	EFFORT	-0.2349363
-5.032494	EFFORTS	-0.1498393
-4.887422	EGG	-0.2684805
-3.983812	EH	-0.6458791
-4.795097	EI	-0.1498393
-3.442692	EIGHT	-0.5091915
-4.010869	EIGHTEEN	-0.2534535
-5.032494	EIGHTEENTH	-0.1498393
-4.795097	EIGHTH	-0.2252311
-4.544131	EIGHTIES	-0.2456248
-5.032494	EIGHTS	-0.1498393
-3.795282	EIGHTY	-0.448438
-4.887422	EITH	-0.2684805
-3.167131	EITHER	-0.4122034
-4.795097	EJECT	-0.1498393
-4.457966	EL	-0.1805626
-4.270478	ELABORATE	-0.1711152
-4.887422	ELABORATED	-0.1498393
-4.651732	ELAN	-0.1498393
-5.032494	ELAN'S	-0.1498393
-4.887422	ELASTICITY	-0.1498393
-5.032494	ELASTICY	-0.1498393
-4.386098	ELDER	-0.3321901
-5.032494	ELDERL	-0.1498393
-3.983812	ELDERLY	-0.5981737
-5.032494	ELEC	-0.1498393
-5.032494	ELECTR	-0.1498393
-4.887422	ELECTRET	-0.1498393
-4.386098	ELECTRIC	-0.1498393
-4.222477	ELECTRICAL	-0.272164
-4.457966	ELECTRICITY	-0.2272228
-5.032494	ELECTRICS	-0.1498393
-5.032494	ELECTRO	-0.1498393
-5.032494	ELECTROCUTED	-0.1498393
-4.887422	ELECTROMAGNETIC	-0.1498393
-3.849511	ELECTRONIC	-0.2601967
-5.032494	ELECTRONICAL	-0.1498393
-3.889833	ELECTRONICS	-0.4921938
-4.386098	ELEGANT	-0.2870175
-3.958344	ELEMENT	-0.2274502
-4.887422	ELEMENTAL	-0.1498393
-4.651732	ELEMENTARY	-0.2051211
-4.039723	ELEMENTS	-0.324432
-4.179257	ELEPHANT	-0.5678441
-4.222477	ELEPHANTS	-0.2182467
-4.795097	ELEVATION	-0.2252311
-3.911491	ELEVEN	-0.3699757
-5.032494	ELEVEN'S	-0.1498393
-5.032494	ELEVENTH	-0.1498393
-4.887422	ELICITATION	-0.1498393
-4.544131	ELIMINATE	-0.1859013
-5.032494	ELIMINATED	-0.1498393
-4.887422	ELIMINATES	-0.1498393
-4.795097	ELIMINATING	-0.1498393
-5.032494	ELIMINATION	-0.1498393
-5.032494	ELISE	-0.1498393
-4.887422	ELIX	-0.2684805
-4.651732	ELK	-0.2445033
-4.222477	ELLEN	-0.1893331
-5.032494	ELLEN'LL	-0.1498393
-4.457966	ELLEN'S	-0.1859013
-5.032494	ELLIPSIS	-0.1498393
-4.887422	ELLIPTICAL	-0.1498393
-4.887422	ELLIPTICALS	-0.1498393
-5.032494	ELLIS	-0.1498393
-5.032494	ELOQUENT	-0.1498393
-5.032494	ELS	-0.1498393
-3.812617	ELSE	-0.6122629
-5.032494	ELSE'S	-0.1498393
-4.386098	ELSEWHERE	-0.3521615
-4.544131	EM	-0.1498393
-5.032494	EMA	-0.1498393
-4.651732	EMACS	-0.1498393
-3.525576	EMAIL	-0.5246227
-4.386098	EMAILED	-0.2701301
-4.651732	EMAILING	-0.1498393
-4.010869	EMAILS	-0.3236845
-5.032494	EMANATE	-0.1498393
-4.887422	EMBED	-0.1498393
-4.222477	EMBEDDED	-0.2712162
-5.032494	EMBEDDING	-0.1498393
-5.032494	EMBLEMATIC	-0.1498393
-5.032494	EMBODY	-0.1498393
-5.032494	EMBOSSED	-0.1498393
-5.032494	EMBOSSING	-0.1498393
-5.032494	EMBRACE	-0.1498393
-4.887422	EMERGE	-0.1498393
-4.887422	EMERGING	-0.1498393
-5.032494	EMI	-0.1498393
-3.690147	EMISSION	-0.514782
-5.032494	EMIT	-0.1498393
-5.032494	EMITS	-0.1498393
-5.032494	EMITTED	-0.1498393
-5.032494	EMITTERS	-0.1498393
-4.795097	EMITTING	-0.2706814
-4.795097	EMOTION	-0.2252311
-4.887422	EMOTIONAL	-0.1498393
-4.795097	EMPHASIS	-0.2717859
-4.544131	EMPHASISE	-0.2272228
-5.032494	EMPHASISES	-0.1498393
-5.032494	EMPHASISING	-0.1498393
-5.032494	EMPHASIZE	-0.1498393
-5.032494	EMPHATICALLY	-0.1498393
-5.032494	EMPIRICAL	-0.1498393
-4.887422	EMPL	-0.1498393
-5.032494	EMPLOY	-0.1498393
-5.032494	EMPLOYED	-0.1498393
-5.032494	EMPLOYEES	-0.1498393
-4.10391	EMPTY	-0.2641934
-4.544131	EN	-0.1498393
-4.457966	ENABLE	-0.2512199
-5.032494	ENABLED	-0.1498393
-5.032494	ENCAPSULATING	-0.1498393
-5.032494	ENCASED	-0.1498393
